{"learner":{"attributes":{},"feature_names":["bath_score_diff","full_baths_diff","half_baths_diff","room_count_diff","bedrooms_diff","effective_age_diff","subject_age_diff","lot_size_sf_diff","gla_diff","abs_bath_score_diff","abs_full_bath_diff","abs_half_bath_diff","abs_room_count_diff","abs_bedrooms_diff","abs_effective_age_diff","abs_subject_age_diff","abs_lot_size_sf_diff","abs_gla_diff","same_property_type","sold_recently"],"feature_types":["float","float","float","float","float","float","float","float","float","float","float","float","float","float","float","float","float","float","float","float"],"gradient_booster":{"model":{"gbtree_model_param":{"num_parallel_tree":"1","num_trees":"100"},"iteration_indptr":[0,1,2,3,4,5,6,7,8,9,10,11,12,13,14,15,16,17,18,19,20,21,22,23,24,25,26,27,28,29,30,31,32,33,34,35,36,37,38,39,40,41,42,43,44,45,46,47,48,49,50,51,52,53,54,55,56,57,58,59,60,61,62,63,64,65,66,67,68,69,70,71,72,73,74,75,76,77,78,79,80,81,82,83,84,85,86,87,88,89,90,91,92,93,94,95,96,97,98,99,100],"tree_info":[0,0,0,0,0,0,0,0,0,0,0,0,0,0,0,0,0,0,0,0,0,0,0,0,0,0,0,0,0,0,0,0,0,0,0,0,0,0,0,0,0,0,0,0,0,0,0,0,0,0,0,0,0,0,0,0,0,0,0,0,0,0,0,0,0,0,0,0,0,0,0,0,0,0,0,0,0,0,0,0,0,0,0,0,0,0,0,0,0,0,0,0,0,0,0,0,0,0,0,0],"trees":[{"base_weights":[2.3739164E-9,3.2379708E-1,-9.00955E-1,-9.787661E-2,4.9096337E-1,-9.9166706E-2,-4.909482E-1,7.006809E-1,-2.0287246E-1,6.700372E-1,-7.971342E-1,7.71745E-1,-7.1502745E-1,4.6334486E-2,-9.5319085E-2,7.737034E-2,2.1609997E-2,5.3724356E-2,-8.917806E-1,8.6135155E-1,3.787216E-1,-8.365392E-1,3.697766E-2,-2.8732798E-1,6.782213E-1,-1.1290251E-2,-9.50872E-2,9.14265E-2,4.663703E-2,6.976675E-2,-1.2040393E-3,-1.7830817E-2,-9.1133654E-2,1.8083323E-2,-4.6228353E-2,-5.8181997E-2,7.872543E-2],"categories":[],"categories_nodes":[],"categories_segments":[],"categories_sizes":[],"default_left":[0,0,1,0,0,0,1,0,0,0,0,0,1,0,0,0,0,0,0,0,0,0,0,0,0,0,0,0,0,0,0,0,0,0,0,0,0],"id":0,"left_children":[1,3,5,-1,7,-1,9,11,13,15,17,19,21,23,-1,-1,-1,-1,25,27,29,31,-1,33,35,-1,-1,-1,-1,-1,-1,-1,-1,-1,-1,-1,-1],"loss_changes":[1.6303775E2,8.9999405E1,5.008461E0,0E0,5.3256638E1,0E0,1.0753366E1,2.8774353E1,1.6031096E1,1.40692E-1,3.4097853E0,9.097916E0,2.145206E0,1.3927806E1,0E0,0E0,0E0,0E0,9.0722847E-1,4.1115875E0,6.4229245E0,4.6922874E-1,0E0,3.6325705E0,3.5913E0,0E0,0E0,0E0,0E0,0E0,0E0,0E0,0E0,0E0,0E0,0E0,0E0],"parents":[2147483647,0,0,1,1,2,2,4,4,6,6,7,7,8,8,9,9,10,10,11,11,12,12,13,13,18,18,19,19,20,20,21,21,23,23,24,24],"right_children":[2,4,6,-1,8,-1,10,12,14,16,18,20,22,24,-1,-1,-1,-1,26,28,30,32,-1,34,36,-1,-1,-1,-1,-1,-1,-1,-1,-1,-1,-1,-1],"split_conditions":[1.5E0,1E0,-4E0,-9.787661E-2,3E0,-9.9166706E-2,-7.8E1,7.8E2,-1E0,4.953E3,3E0,1.88E2,7E1,1E1,-9.5319085E-2,7.737034E-2,2.1609997E-2,5.3724356E-2,-3E0,4E0,8E0,-4.2E1,3.697766E-2,1.43E2,-4E0,-1.1290251E-2,-9.50872E-2,9.14265E-2,4.663703E-2,6.976675E-2,-1.2040393E-3,-1.7830817E-2,-9.1133654E-2,1.8083323E-2,-4.6228353E-2,-5.8181997E-2,7.872543E-2],"split_indices":[9,18,6,0,12,0,5,8,5,7,16,8,6,6,0,0,0,0,6,5,15,5,0,17,3,0,0,0,0,0,0,0,0,0,0,0,0],"split_type":[0,0,0,0,0,0,0,0,0,0,0,0,0,0,0,0,0,0,0,0,0,0,0,0,0,0,0,0,0,0,0,0,0,0,0,0,0],"sum_hessian":[5.568717E2,4.101185E2,1.4675317E2,4.6094463E1,3.6402405E2,1.190052E2,2.774797E1,2.7952536E2,8.449868E1,5.542767E0,2.2205204E1,2.6659787E2,1.2927505E1,6.413534E1,2.036334E1,3.9388247E0,1.6039425E0,1.160964E0,2.1044239E1,2.1613013E2,5.0467735E1,1.1831126E1,1.0963783E0,4.23291E1,2.1806238E1,1.689235E0,1.9355005E1,1.8943755E2,2.6692577E1,2.7354868E1,2.311287E1,1.5525217E0,1.02786045E1,1.1506206E1,3.0822897E1,1.3913143E0,2.0414923E1],"tree_param":{"num_deleted":"0","num_feature":"20","num_nodes":"37","size_leaf_vector":"1"}},{"base_weights":[-2.1351457E-8,2.231692E-1,-7.910321E-1,-9.015176E-2,3.0964878E-1,-9.213211E-2,-2.5910616E-1,-1.2482818E-3,5.734148E-1,2.0127535E-1,-8.7227784E-2,1.0660697E-1,-6.288079E-1,7.280388E-1,2.3805507E-1,6.159026E-1,-8.309194E-2,2.9458833E-1,-3.1299824E-1,4.557008E-1,-7.753992E-1,8.158344E-1,4.5255944E-1,-6.941046E-1,4.2346564E-1,-6.1420534E-2,7.737195E-2,4.4863313E-2,-8.135729E-3,5.7061847E-2,-5.322192E-2,-4.9477205E-2,7.5124264E-2,5.3136107E-2,-8.585929E-2,8.313733E-2,-6.0245614E-2,-5.3505483E-3,5.563279E-2,-9.164757E-2,4.9272608E-2,7.8402065E-2,2.4009662E-2,5.7100363E-2,-6.077941E-2],"categories":[],"categories_nodes":[],"categories_segments":[],"categories_sizes":[],"default_left":[0,0,1,0,1,0,1,0,1,0,0,0,0,0,1,0,0,1,0,1,0,1,1,0,0,0,0,0,0,0,0,0,0,0,0,0,0,0,0,0,0,0,0,0,0],"id":1,"left_children":[1,3,5,-1,7,-1,9,11,13,15,-1,17,19,21,23,25,-1,27,29,31,33,35,37,39,41,43,-1,-1,-1,-1,-1,-1,-1,-1,-1,-1,-1,-1,-1,-1,-1,-1,-1,-1,-1],"loss_changes":[1.640364E2,7.0769066E1,1.3931625E1,0E0,5.52498E1,0E0,1.1924451E1,2.1065647E1,1.872763E1,1.1033102E1,0E0,2.1041668E1,7.609833E0,5.652771E0,2.0430693E1,1.9836793E0,0E0,1.0688719E1,1.6314934E1,2.0753355E0,4.8677635E0,4.6346054E0,3.3076982E0,5.653002E0,6.277891E0,1.8499037E0,0E0,0E0,0E0,0E0,0E0,0E0,0E0,0E0,0E0,0E0,0E0,0E0,0E0,0E0,0E0,0E0,0E0,0E0,0E0],"parents":[2147483647,0,0,1,1,2,2,4,4,6,6,7,7,8,8,9,9,11,11,12,12,13,13,14,14,15,15,17,17,18,18,19,19,20,20,21,21,22,22,23,23,24,24,25,25],"right_children":[2,4,6,-1,8,-1,10,12,14,16,-1,18,20,22,24,26,-1,28,30,32,34,36,38,40,42,44,-1,-1,-1,-1,-1,-1,-1,-1,-1,-1,-1,-1,-1,-1,-1,-1,-1,-1,-1],"split_conditions":[1.5E0,1E0,-4E0,-9.015176E-2,0E0,-9.213211E-2,-1.3E1,4.1E2,9.35E2,1.29E3,-8.7227784E-2,5E0,1E0,1.67E2,-1.6E1,1E0,-8.309194E-2,-3E0,4E0,2.54E3,3E0,3.5E1,3E0,2.7061E4,1E0,-2E0,7.737195E-2,4.4863313E-2,-8.135729E-3,5.7061847E-2,-5.322192E-2,-4.9477205E-2,7.5124264E-2,5.3136107E-2,-8.585929E-2,8.313733E-2,-6.0245614E-2,-5.3505483E-3,5.563279E-2,-9.164757E-2,4.9272608E-2,7.8402065E-2,2.4009662E-2,5.7100363E-2,-6.077941E-2],"split_indices":[9,18,6,0,3,0,5,8,16,17,0,6,15,8,6,3,0,7,14,7,16,15,14,7,19,1,0,0,0,0,0,0,0,0,0,0,0,0,0,0,0,0,0,0,0],"split_type":[0,0,0,0,0,0,0,0,0,0,0,0,0,0,0,0,0,0,0,0,0,0,0,0,0,0,0,0,0,0,0,0,0,0,0,0,0,0,0,0,0,0,0,0,0],"sum_hessian":[9.272057E2,7.2373926E2,2.0346642E2,5.100343E1,6.7273584E2,1.6284694E2,4.0619476E1,3.092375E2,3.6349835E2,2.3583937E1,1.7035542E1,2.6459338E2,4.4644104E1,2.4798788E2,1.1551045E2,1.711303E1,6.470907E0,1.8293654E2,8.165686E1,5.0648437E0,3.9579258E1,1.865672E2,6.1420692E1,1.8708591E1,9.6801865E1,3.3492846E0,1.3763744E1,1.2962782E2,5.330872E1,1.5913039E1,6.574382E1,1.0414346E0,4.023409E0,2.0465264E0,3.7532734E1,1.8495464E2,1.6125658E0,1.0533685E1,5.088701E1,1.5948237E1,2.7603538E0,3.1529793E1,6.527207E1,1.5315015E0,1.817783E0],"tree_param":{"num_deleted":"0","num_feature":"20","num_nodes":"45","size_leaf_vector":"1"}},{"base_weights":[-6.937067E-8,2.1658036E-1,-7.606208E-1,-8.452783E-2,3.0596897E-1,-8.6395405E-2,-3.2346264E-1,5.062108E-1,-1.6361183E-2,5.779702E-1,-6.030601E-1,6.1608577E-1,-1.9547175E-1,6.736447E-1,-9.8912634E-2,2.2926896E-4,6.862511E-2,1.9384472E-1,-8.337142E-2,2.5433943E-1,7.0754415E-1,6.302624E-2,-8.575218E-2,1.667414E-1,8.3491504E-2,9.626818E-2,-4.4614106E-1,-6.194172E-2,7.1475215E-2,7.463088E-2,-1.6168582E-3,-7.5916494E-3,7.196393E-2,6.385023E-2,-2.1799266E-2,6.4334534E-2,-6.469494E-2,3.1323448E-2,-1.4046672E-2,-1.806016E-2,-8.807096E-2],"categories":[],"categories_nodes":[],"categories_segments":[],"categories_sizes":[],"default_left":[0,0,1,0,0,0,1,0,0,0,0,1,0,0,0,0,0,1,0,0,1,0,0,0,0,1,0,0,0,0,0,0,0,0,0,0,0,0,0,0,0],"id":2,"left_children":[1,3,5,-1,7,-1,9,11,13,15,17,19,21,23,25,-1,-1,27,-1,29,31,33,-1,35,-1,37,39,-1,-1,-1,-1,-1,-1,-1,-1,-1,-1,-1,-1,-1,-1],"loss_changes":[1.4297604E2,6.4380905E1,8.409935E0,0E0,4.0273056E1,0E0,1.0020348E1,2.9789177E1,1.3738007E1,5.965526E-1,5.6352596E0,1.0836021E1,9.100318E0,1.9678154E0,1.4630156E1,0E0,0E0,3.6181953E0,0E0,9.161995E0,2.5677643E0,6.437764E0,0E0,3.3133311E0,0E0,7.163463E0,8.798944E0,0E0,0E0,0E0,0E0,0E0,0E0,0E0,0E0,0E0,0E0,0E0,0E0,0E0,0E0],"parents":[2147483647,0,0,1,1,2,2,4,4,6,6,7,7,8,8,9,9,10,10,11,11,12,12,13,13,14,14,17,17,19,19,20,20,21,21,23,23,25,25,26,26],"right_children":[2,4,6,-1,8,-1,10,12,14,16,18,20,22,24,26,-1,-1,28,-1,30,32,34,-1,36,-1,38,40,-1,-1,-1,-1,-1,-1,-1,-1,-1,-1,-1,-1,-1,-1],"split_conditions":[1.5E0,1E0,-4E0,-8.452783E-2,2E0,-8.6395405E-2,-7.8E1,3.47E2,-6.5E1,2.5E0,7.85E2,-8E0,1.7E1,5.17E2,4E0,2.2926896E-4,6.862511E-2,2E0,-8.337142E-2,1E0,-1E0,1E0,-8.575218E-2,1E0,8.3491504E-2,7.65E2,-7E0,-6.194172E-2,7.1475215E-2,7.463088E-2,-1.6168582E-3,-7.5916494E-3,7.196393E-2,6.385023E-2,-2.1799266E-2,6.4334534E-2,-6.469494E-2,3.1323448E-2,-1.4046672E-2,-1.806016E-2,-8.807096E-2],"split_indices":[9,18,6,0,12,0,5,8,5,0,16,6,15,17,12,0,0,1,0,19,4,19,0,19,0,16,5,0,0,0,0,0,0,0,0,0,0,0,0,0,0],"split_type":[0,0,0,0,0,0,0,0,0,0,0,0,0,0,0,0,0,0,0,0,0,0,0,0,0,0,0,0,0,0,0,0,0,0,0,0,0,0,0,0,0],"sum_hessian":[8.659124E2,6.74554E2,1.913584E2,5.1719166E1,6.2283484E2,1.539841E2,3.7374306E1,3.838219E2,2.3901295E2,8.595367E0,2.8778936E1,3.3196255E2,5.185932E1,2.4774565E1,2.1423839E2,1.5224427E0,7.0729246E0,6.4957724E0,2.2283165E1,6.775425E1,2.642083E2,3.7947495E1,1.3911829E1,6.4704943E0,1.8304071E1,1.3760942E2,7.662897E1,2.4623458E0,4.0334263E0,2.3413502E1,4.434075E1,3.9366286E0,2.602717E2,1.2033322E1,2.5914171E1,4.212469E0,2.258025E0,7.163404E1,6.597537E1,4.844354E1,2.818543E1],"tree_param":{"num_deleted":"0","num_feature":"20","num_nodes":"41","size_leaf_vector":"1"}},{"base_weights":[-3.0640784E-8,2.0382576E-1,-7.2103804E-1,-7.985539E-2,2.895832E-1,-8.1908576E-2,-3.143291E-1,-8.238325E-2,4.328866E-1,4.913263E-1,-5.885179E-1,4.295724E-2,-7.281452E-1,4.9584082E-1,-1.3008013E-1,6.817293E-2,-5.034857E-2,1.0991441E-1,-7.839879E-2,2.401972E-1,-3.3034828E-1,1.3297082E-1,-8.5386656E-2,5.832662E-1,2.1190178E-1,6.4111847E-1,-5.246182E-1,-5.9927534E-2,6.5742984E-2,-2.0918163E-2,5.201555E-2,-6.692626E-2,5.6763957E-3,5.8804452E-2,-5.0012317E-2,-4.9075764E-2,5.972398E-2,4.6960175E-2,-2.6696343E-2,-4.7691714E-2,7.621628E-2,-7.216107E-2,3.3551406E-2],"categories":[],"categories_nodes":[],"categories_segments":[],"categories_sizes":[],"default_left":[0,0,1,0,1,0,1,0,0,0,0,0,0,0,0,0,0,1,0,0,0,0,0,0,0,0,1,0,0,0,0,0,0,0,0,0,0,0,0,0,0,0,0],"id":3,"left_children":[1,3,5,-1,7,-1,9,11,13,15,17,19,21,23,25,-1,-1,27,-1,29,31,33,-1,35,37,39,41,-1,-1,-1,-1,-1,-1,-1,-1,-1,-1,-1,-1,-1,-1,-1,-1],"loss_changes":[1.24571236E2,5.703604E1,7.191635E0,0E0,3.2522915E1,0E0,8.663229E0,1.3818779E1,1.5663162E1,2.2697015E0,4.0095606E0,1.06525545E1,3.117157E0,9.708206E0,1.404652E1,0E0,0E0,3.1746185E0,0E0,1.2001921E1,6.60619E0,1.5617058E0,0E0,4.829376E0,1.1825482E1,2.488234E0,5.386195E0,0E0,0E0,0E0,0E0,0E0,0E0,0E0,0E0,0E0,0E0,0E0,0E0,0E0,0E0,0E0,0E0],"parents":[2147483647,0,0,1,1,2,2,4,4,6,6,7,7,8,8,9,9,10,10,11,11,12,12,13,13,14,14,17,17,19,19,20,20,21,21,23,23,24,24,25,25,26,26],"right_children":[2,4,6,-1,8,-1,10,12,14,16,18,20,22,24,26,-1,-1,28,-1,30,32,34,-1,36,38,40,42,-1,-1,-1,-1,-1,-1,-1,-1,-1,-1,-1,-1,-1,-1,-1,-1],"split_conditions":[1.5E0,1E0,-4E0,-7.985539E-2,-1E0,-8.1908576E-2,-7.8E1,1E0,6.47E2,1.29E3,7.85E2,8.3E1,-2.587E3,1.7E1,-4.2E1,6.817293E-2,-5.034857E-2,2E0,-7.839879E-2,-1.5E1,5E-1,2.674E3,-8.5386656E-2,-4.6339E4,1E0,1E0,1.8661E4,-5.9927534E-2,6.5742984E-2,-2.0918163E-2,5.201555E-2,-6.692626E-2,5.6763957E-3,5.8804452E-2,-5.0012317E-2,-4.9075764E-2,5.972398E-2,4.6960175E-2,-2.6696343E-2,-4.7691714E-2,7.621628E-2,-7.216107E-2,3.3551406E-2],"split_indices":[9,18,6,0,3,0,5,5,8,17,16,8,7,15,5,0,0,1,0,5,0,16,0,7,10,3,7,0,0,0,0,0,0,0,0,0,0,0,0,0,0,0,0],"split_type":[0,0,0,0,0,0,0,0,0,0,0,0,0,0,0,0,0,0,0,0,0,0,0,0,0,0,0,0,0,0,0,0,0,0,0,0,0,0,0,0,0,0,0],"sum_hessian":[8.456186E2,6.5981647E2,1.8580214E2,5.1345905E1,6.084706E2,1.4889354E2,3.69086E1,1.6934196E2,4.391286E2,9.170572E0,2.7738028E1,1.4259766E2,2.6744308E1,3.9506894E2,4.4059666E1,7.96149E0,1.2090819E0,6.161195E0,2.1576832E1,9.3534355E1,4.9063305E1,3.3998327E0,2.3344477E1,3.012571E2,9.381184E1,1.4700262E1,2.9359402E1,2.6430936E0,3.5181015E0,3.6000492E1,5.7533863E1,2.5771585E1,2.329172E1,2.0194159E0,1.3804169E0,3.4309535E0,2.9782614E2,6.1002735E1,3.28091E1,1.1488451E0,1.3551417E1,2.401939E1,5.3400126E0],"tree_param":{"num_deleted":"0","num_feature":"20","num_nodes":"43","size_leaf_vector":"1"}},{"base_weights":[4.2742567E-8,1.9495453E-1,-6.8955207E-1,-7.5995915E-2,2.7619317E-1,-7.808554E-2,-3.0157527E-1,3.8714093E-1,-1.3078198E-1,4.5951185E-1,-5.587489E-1,4.7373158E-1,-1.06252536E-1,2.927809E-2,-7.915765E-2,-1.9883083E-3,5.888882E-2,1.1118627E-1,-7.442287E-2,-2.3470432E-1,5.030357E-1,-4.5330748E-1,2.136666E-1,-1.8860376E-1,4.3380862E-1,-5.638225E-2,6.2112894E-2,-5.5075925E-2,6.1880838E-2,5.7011522E-2,1.4850575E-2,-5.961513E-2,5.8280118E-2,7.38263E-2,-7.50582E-3,6.9582807E-3,-4.031215E-2,-6.0613453E-2,5.2477654E-2],"categories":[],"categories_nodes":[],"categories_segments":[],"categories_sizes":[],"default_left":[0,0,1,0,0,0,1,0,0,0,0,0,0,0,0,0,0,1,0,1,0,1,0,0,0,0,0,0,0,0,0,0,0,0,0,0,0,0,0],"id":4,"left_children":[1,3,5,-1,7,-1,9,11,13,15,17,19,21,23,-1,-1,-1,25,-1,27,29,31,33,35,37,-1,-1,-1,-1,-1,-1,-1,-1,-1,-1,-1,-1,-1,-1],"loss_changes":[1.1186493E2,5.0535213E1,6.2616043E0,0E0,2.7078953E1,0E0,7.41451E0,2.015667E1,1.3664602E1,6.1858034E-1,3.5352373E0,8.433304E0,7.9887543E0,9.318117E0,0E0,0E0,0E0,2.723418E0,0E0,4.816587E0,9.070015E0,5.4407773E0,5.7603354E0,3.8388593E0,3.8170419E0,0E0,0E0,0E0,0E0,0E0,0E0,0E0,0E0,0E0,0E0,0E0,0E0,0E0,0E0],"parents":[2147483647,0,0,1,1,2,2,4,4,6,6,7,7,8,8,9,9,10,10,11,11,12,12,13,13,17,17,19,19,20,20,21,21,22,22,23,23,24,24],"right_children":[2,4,6,-1,8,-1,10,12,14,16,18,20,22,24,-1,-1,-1,26,-1,28,30,32,34,36,38,-1,-1,-1,-1,-1,-1,-1,-1,-1,-1,-1,-1,-1,-1],"split_conditions":[1.5E0,1E0,-4E0,-7.5995915E-2,3E0,-7.808554E-2,-7.8E1,3.66E2,-1E0,7E0,7.85E2,-2.734E3,1E0,1E1,-7.915765E-2,-1.9883083E-3,5.888882E-2,2E0,-7.442287E-2,1E0,4E0,1.7424E5,1E0,-1.07E2,-4E0,-5.638225E-2,6.2112894E-2,-5.5075925E-2,6.1880838E-2,5.7011522E-2,1.4850575E-2,-5.961513E-2,5.8280118E-2,7.38263E-2,-7.50582E-3,6.9582807E-3,-4.031215E-2,-6.0613453E-2,5.2477654E-2],"split_indices":[9,18,6,0,12,0,5,8,5,3,16,7,3,6,0,0,0,1,0,5,5,7,19,8,3,0,0,0,0,0,0,0,0,0,0,0,0,0,0],"split_type":[0,0,0,0,0,0,0,0,0,0,0,0,0,0,0,0,0,0,0,0,0,0,0,0,0,0,0,0,0,0,0,0,0,0,0,0,0,0,0],"sum_hessian":[8.301348E2,6.4772363E2,1.824112E2,5.0129185E1,5.975944E2,1.4684193E2,3.5569256E1,4.6961798E2,1.27976425E2,8.784721E0,2.6784534E1,3.9953873E2,7.007928E1,1.0379139E2,2.418504E1,2.046792E0,6.7379293E0,5.8945465E0,2.088999E1,1.5591874E1,3.8394684E2,3.3414062E1,3.6665215E1,6.780507E1,3.598632E1,2.4912417E0,3.4033046E0,1.1637305E1,3.9545684E0,3.223483E2,6.1598537E1,2.9738735E1,3.675326E0,1.2463243E1,2.4201971E1,3.1077196E1,3.672787E1,2.4391239E0,3.35472E1],"tree_param":{"num_deleted":"0","num_feature":"20","num_nodes":"39","size_leaf_vector":"1"}},{"base_weights":[-1.8578069E-8,1.8378028E-1,-6.5853983E-1,-7.274807E-2,2.5922993E-1,-7.483172E-2,-2.7774507E-1,4.8897173E-2,4.362431E-1,4.1964582E-1,-5.240021E-1,1.7996061E-1,-3.6227953E-1,5.999562E-1,2.46506E-1,5.886862E-1,-4.628397E-2,1.2913826E-1,-7.108367E-2,2.8860694E-1,-3.1128073E-1,6.755596E-2,-4.8192132E-1,-6.227817E-2,6.205434E-1,4.1920412E-1,-2.7314057E-3,2.1692535E-2,6.385928E-2,-5.3377356E-2,6.0056098E-2,-1.8866815E-2,3.796372E-2,3.5719726E-2,-7.1232565E-2,3.8276505E-2,-5.5553604E-2,6.816309E-2,3.47862E-2,4.6556998E-2,-6.2472858E-2,2.7302653E-2,-4.5650724E-2],"categories":[],"categories_nodes":[],"categories_segments":[],"categories_sizes":[],"default_left":[0,0,1,0,1,0,1,0,0,0,0,0,0,0,0,0,0,1,0,1,0,0,0,0,0,0,0,0,0,0,0,0,0,0,0,0,0,0,0,0,0,0,0],"id":5,"left_children":[1,3,5,-1,7,-1,9,11,13,15,17,19,21,23,25,27,-1,29,-1,31,33,-1,35,-1,37,39,41,-1,-1,-1,-1,-1,-1,-1,-1,-1,-1,-1,-1,-1,-1,-1,-1],"loss_changes":[9.922241E1,4.4257645E1,5.9073257E0,0E0,2.204549E1,0E0,6.353784E0,1.4722224E1,9.845203E0,1.7457293E0,3.3671408E0,1.1132847E1,8.529567E0,4.716221E0,6.4880896E0,2.341628E-2,0E0,2.4507663E0,0E0,7.455509E0,1.042964E1,0E0,4.020753E0,0E0,2.5888748E0,4.600175E0,7.9677672E0,0E0,0E0,0E0,0E0,0E0,0E0,0E0,0E0,0E0,0E0,0E0,0E0,0E0,0E0,0E0,0E0],"parents":[2147483647,0,0,1,1,2,2,4,4,6,6,7,7,8,8,9,9,10,10,11,11,12,12,13,13,14,14,15,15,17,17,19,19,20,20,22,22,24,24,25,25,26,26],"right_children":[2,4,6,-1,8,-1,10,12,14,16,18,20,22,24,26,28,-1,30,-1,32,34,-1,36,-1,38,40,42,-1,-1,-1,-1,-1,-1,-1,-1,-1,-1,-1,-1,-1,-1,-1,-1],"split_conditions":[1.5E0,1E0,-4E0,-7.274807E-2,0E0,-7.483172E-2,-7.8E1,1.67E2,1.83E2,1.29E3,7.85E2,2E0,-7.9E1,-2.317E3,1.1E1,-1E0,-4.628397E-2,2E0,-7.108367E-2,-4E0,7E0,6.755596E-2,1E0,-6.227817E-2,1E0,7.65E2,1E0,2.1692535E-2,6.385928E-2,-5.3377356E-2,6.0056098E-2,-1.8866815E-2,3.796372E-2,3.5719726E-2,-7.1232565E-2,3.8276505E-2,-5.5553604E-2,6.816309E-2,3.47862E-2,4.6556998E-2,-6.2472858E-2,2.7302653E-2,-4.5650724E-2],"split_indices":[9,18,6,0,3,0,5,8,17,17,16,5,5,7,15,0,0,1,0,3,15,0,15,0,4,8,10,0,0,0,0,0,0,0,0,0,0,0,0,0,0,0,0],"split_type":[0,0,0,0,0,0,0,0,0,0,0,0,0,0,0,0,0,0,0,0,0,0,0,0,0,0,0,0,0,0,0,0,0,0,0,0,0,0,0,0,0,0,0],"sum_hessian":[8.178395E2,6.399641E2,1.778754E2,4.8274574E1,5.916895E2,1.4315872E2,3.4716675E1,2.7097934E2,3.2071017E2,8.876019E0,2.5840658E1,2.0590804E2,6.507129E1,1.7100116E2,1.4970903E2,7.728537E0,1.1474811E0,5.8163943E0,2.0024263E1,1.6895358E2,3.6954456E1,6.2457423E0,5.8825546E1,2.3471298E0,1.6865402E2,8.803033E1,6.16787E1,1.5475155E0,6.1810217E0,2.362292E0,3.454102E0,2.689091E1,1.4206267E2,1.3898014E1,2.3056442E1,4.285697E0,5.453985E1,1.365612E2,3.209283E1,8.481723E1,3.2131004E0,3.8612404E1,2.3066294E1],"tree_param":{"num_deleted":"0","num_feature":"20","num_nodes":"43","size_leaf_vector":"1"}},{"base_weights":[6.552071E-10,1.7673118E-1,-6.372261E-1,-7.0092365E-2,2.4948424E-1,-7.21895E-2,-2.807114E-1,-6.927122E-2,3.6651078E-1,3.675745E-1,-5.128341E-1,1.6511533E-1,-2.7473795E-1,4.7791868E-1,9.203957E-2,5.1893175E-1,-4.4277664E-2,1.0404472E-1,-6.848138E-2,3.144589E-1,-4.6245983E-1,5.479706E-1,-3.9217722E-1,7.3641545E-1,3.8442233E-1,-6.390323E-1,2.2134808E-1,1.1372224E-2,6.0870107E-2,-5.1492225E-2,5.6907397E-2,1.1957897E-3,5.1539816E-2,2.6377002E-2,-7.352571E-2,2.3199929E-2,6.80388E-2,5.1513135E-2,-5.043115E-2,7.798686E-2,5.5755984E-2,-7.5976595E-2,4.2001057E-2,2.508824E-2,-7.7306315E-2,5.4590356E-2,7.934137E-3],"categories":[],"categories_nodes":[],"categories_segments":[],"categories_sizes":[],"default_left":[0,0,1,0,1,0,1,0,1,0,0,0,0,0,1,0,0,1,0,0,0,0,0,0,0,0,0,0,0,0,0,0,0,0,0,0,0,0,0,0,0,0,0,0,0,0,0],"id":6,"left_children":[1,3,5,-1,7,-1,9,11,13,15,17,19,21,23,25,27,-1,29,-1,31,33,35,37,39,41,43,45,-1,-1,-1,-1,-1,-1,-1,-1,-1,-1,-1,-1,-1,-1,-1,-1,-1,-1,-1,-1],"loss_changes":[9.099619E1,4.056576E1,5.093132E0,0E0,2.1843239E1,0E0,5.501338E0,7.650004E0,1.3042793E1,1.4429146E0,2.873589E0,7.1173463E0,8.381134E0,7.0683823E0,1.1939308E1,2.506857E-1,0E0,2.2004633E0,0E0,3.6824489E0,3.1069868E0,3.0134964E-1,7.8440723E0,1.8461227E-1,9.500286E0,2.4618387E0,4.878381E0,0E0,0E0,0E0,0E0,0E0,0E0,0E0,0E0,0E0,0E0,0E0,0E0,0E0,0E0,0E0,0E0,0E0,0E0,0E0,0E0],"parents":[2147483647,0,0,1,1,2,2,4,4,6,6,7,7,8,8,9,9,10,10,11,11,12,12,13,13,14,14,15,15,17,17,19,19,20,20,21,21,22,22,23,23,24,24,25,25,26,26],"right_children":[2,4,6,-1,8,-1,10,12,14,16,18,20,22,24,26,28,-1,30,-1,32,34,36,38,40,42,44,46,-1,-1,-1,-1,-1,-1,-1,-1,-1,-1,-1,-1,-1,-1,-1,-1,-1,-1,-1,-1],"split_conditions":[1.5E0,1E0,-4E0,-7.0092365E-2,-1E0,-7.21895E-2,-7.8E1,1.6E1,1.195E3,1.29E3,7.85E2,8.3E1,-7.9E1,1E0,-1.6E1,-1E0,-4.4277664E-2,2E0,-6.848138E-2,1E0,-6E0,-3.5E1,1E0,3E0,-2.2E1,2.4E1,2E0,1.1372224E-2,6.0870107E-2,-5.1492225E-2,5.6907397E-2,1.1957897E-3,5.1539816E-2,2.6377002E-2,-7.352571E-2,2.3199929E-2,6.80388E-2,5.1513135E-2,-5.043115E-2,7.798686E-2,5.5755984E-2,-7.5976595E-2,4.2001057E-2,2.508824E-2,-7.7306315E-2,5.4590356E-2,7.934137E-3],"split_indices":[9,18,6,0,3,0,5,14,16,17,16,8,5,19,6,0,0,1,0,2,3,6,15,6,6,17,15,0,0,0,0,0,0,0,0,0,0,0,0,0,0,0,0,0,0,0,0],"split_type":[0,0,0,0,0,0,0,0,0,0,0,0,0,0,0,0,0,0,0,0,0,0,0,0,0,0,0,0,0,0,0,0,0,0,0,0,0,0,0,0,0,0,0,0,0,0,0],"sum_hessian":[8.060096E2,6.3156976E2,1.7443979E2,4.7685276E1,5.838845E2,1.4013431E2,3.430547E1,1.5690811E2,4.269764E2,8.890902E0,2.541457E1,7.338754E1,8.352058E1,3.0317596E2,1.2380043E2,7.7946415E0,1.0962604E0,5.6267695E0,1.97878E1,5.968361E1,1.3703932E1,9.975095E0,7.354549E1,7.870303E1,2.2447293E2,1.8013805E1,1.0578662E2,1.8247473E0,5.9698944E0,2.3678308E0,3.258939E0,2.4244537E1,3.543907E1,3.7510715E0,9.95286E0,3.7585526E0,6.2165422E0,7.6943707E0,6.585111E1,6.061602E1,1.8087013E1,6.1574526E0,2.1831549E2,2.2438247E0,1.576998E1,3.13324E1,7.445422E1],"tree_param":{"num_deleted":"0","num_feature":"20","num_nodes":"47","size_leaf_vector":"1"}},{"base_weights":[9.2231765E-8,1.7133446E-1,-6.1804175E-1,-6.782236E-2,2.4153943E-1,-6.99717E-2,-2.700796E-1,3.40689E-1,-1.2245118E-1,3.8443738E-1,-5.0026023E-1,4.0590304E-1,-2.2896995E-1,2.6037902E-2,-7.252919E-2,5.4025214E-2,-4.308109E-2,8.047064E-2,-6.608475E-2,5.19566E-1,1.9484599E-1,-6.2662494E-1,4.5154296E-2,-9.2332445E-2,6.328911E-1,-5.0177615E-2,5.4417104E-2,6.021285E-2,3.6236603E-2,5.405576E-2,6.973199E-3,4.934438E-2,-7.535555E-2,-4.7942325E-2,3.6808908E-2,5.1580567E-2,-1.9664729E-2,6.9545254E-2,2.5458777E-2],"categories":[],"categories_nodes":[],"categories_segments":[],"categories_sizes":[],"default_left":[0,0,1,0,0,0,1,0,0,0,0,0,0,0,0,0,0,1,0,0,0,0,0,0,1,0,0,0,0,0,0,0,0,0,0,0,0,0,0],"id":7,"left_children":[1,3,5,-1,7,-1,9,11,13,15,17,19,21,23,-1,-1,-1,25,-1,27,29,31,33,35,37,-1,-1,-1,-1,-1,-1,-1,-1,-1,-1,-1,-1,-1,-1],"loss_changes":[8.438364E1,3.737648E1,4.7266464E0,0E0,2.0866623E1,0E0,5.3914375E0,1.6950287E1,1.1142757E1,1.4451205E0,2.4746623E0,9.674835E0,5.178895E0,7.2901626E0,0E0,0E0,0E0,2.0323439E0,0E0,3.2117538E0,6.201376E0,3.1225615E0,5.0726323E0,5.500904E0,2.148552E-1,0E0,0E0,0E0,0E0,0E0,0E0,0E0,0E0,0E0,0E0,0E0,0E0,0E0,0E0],"parents":[2147483647,0,0,1,1,2,2,4,4,6,6,7,7,8,8,9,9,10,10,11,11,12,12,13,13,17,17,19,19,20,20,21,21,22,22,23,23,24,24],"right_children":[2,4,6,-1,8,-1,10,12,14,16,18,20,22,24,-1,-1,-1,26,-1,28,30,32,34,36,38,-1,-1,-1,-1,-1,-1,-1,-1,-1,-1,-1,-1,-1,-1],"split_conditions":[1.5E0,1E0,-4E0,-6.782236E-2,3E0,-6.99717E-2,-7.8E1,4.88E2,-1E0,1.29E3,7.85E2,9E0,4.967E3,5.5E1,-7.252919E-2,5.4025214E-2,-4.308109E-2,2E0,-6.608475E-2,1.1E1,1E0,3E0,1E0,-6.5E1,6.2E1,-5.0177615E-2,5.4417104E-2,6.021285E-2,3.6236603E-2,5.405576E-2,6.973199E-3,4.934438E-2,-7.535555E-2,-4.7942325E-2,3.6808908E-2,5.1580567E-2,-1.9664729E-2,6.9545254E-2,2.5458777E-2],"split_indices":[9,18,6,0,12,0,5,8,5,17,16,15,16,15,0,0,0,1,0,8,19,16,3,5,15,0,0,0,0,0,0,0,0,0,0,0,0,0,0],"split_type":[0,0,0,0,0,0,0,0,0,0,0,0,0,0,0,0,0,0,0,0,0,0,0,0,0,0,0,0,0,0,0,0,0,0,0,0,0,0,0],"sum_hessian":[7.948854E2,6.2292114E2,1.7196423E2,4.688615E1,5.7603503E2,1.3845462E2,3.3509605E1,4.5276712E2,1.232679E2,8.544169E0,2.4965437E1,4.0651688E2,4.6250233E1,9.967355E1,2.3594347E1,7.456381E0,1.0877889E0,5.5161834E0,1.9449255E1,2.632722E2,1.4324469E2,1.8348005E1,2.7902227E1,8.411439E1,1.5559163E1,2.4090898E0,3.1070936E0,1.7075839E2,9.2513794E1,3.7182495E1,1.06062195E2,1.5737063E0,1.67743E1,1.0447177E1,1.745505E1,1.1738164E1,7.237623E1,1.2631844E1,2.9273193E0],"tree_param":{"num_deleted":"0","num_feature":"20","num_nodes":"39","size_leaf_vector":"1"}},{"base_weights":[5.500343E-9,1.6587123E-1,-6.0223395E-1,-6.577092E-2,2.3383719E-1,-6.803187E-2,-2.659371E-1,3.065403E-1,-2.37518E-1,3.5938564E-1,-4.86897E-1,4.1118369E-1,3.0522607E-2,-1.7798347E-2,-7.149957E-2,5.049408E-1,-4.078989E-2,8.354617E-2,-6.404586E-2,4.7568175E-1,4.3997947E-2,1.0793534E-1,-6.3181525E-1,-3.520956E-1,2.4107717E-1,1.7386392E-2,5.6337513E-2,-4.7901575E-2,5.2611735E-2,5.453837E-2,2.7058486E-2,-6.2067878E-2,2.5678733E-2,-2.2411866E-2,2.3617458E-2,-6.914406E-2,8.0527635E-3,1.2795374E-2,-5.70319E-2,-6.2127497E-2,4.0697835E-2],"categories":[],"categories_nodes":[],"categories_segments":[],"categories_sizes":[],"default_left":[0,0,1,0,0,0,1,0,0,0,0,0,0,0,0,0,0,1,0,1,0,0,1,0,1,0,0,0,0,0,0,0,0,0,0,0,0,0,0,0,0],"id":8,"left_children":[1,3,5,-1,7,-1,9,11,13,15,17,19,21,23,-1,25,-1,27,-1,29,31,33,35,37,39,-1,-1,-1,-1,-1,-1,-1,-1,-1,-1,-1,-1,-1,-1,-1,-1],"loss_changes":[7.852595E1,3.465377E1,4.2768364E0,0E0,1.960933E1,0E0,4.8217115E0,1.4265896E1,8.038753E0,1.2508639E0,2.2674813E0,8.466316E0,7.091409E0,4.722202E0,0E0,6.283641E-2,0E0,1.8069265E0,0E0,4.2086716E0,7.888362E0,5.311673E0,6.7070055E-1,2.5654051E0,4.6582165E0,0E0,0E0,0E0,0E0,0E0,0E0,0E0,0E0,0E0,0E0,0E0,0E0,0E0,0E0,0E0,0E0],"parents":[2147483647,0,0,1,1,2,2,4,4,6,6,7,7,8,8,9,9,10,10,11,11,12,12,13,13,15,15,17,17,19,19,20,20,21,21,22,22,23,23,24,24],"right_children":[2,4,6,-1,8,-1,10,12,14,16,18,20,22,24,-1,26,-1,28,-1,30,32,34,36,38,40,-1,-1,-1,-1,-1,-1,-1,-1,-1,-1,-1,-1,-1,-1,-1,-1],"split_conditions":[1.5E0,1E0,-4E0,-6.577092E-2,4E0,-6.803187E-2,-7.8E1,1.67E2,-7E0,1.29E3,7.85E2,4E0,1E3,-1E0,-7.149957E-2,-1E0,-4.078989E-2,2E0,-6.404586E-2,1.047E3,0E0,0E0,7E1,6.14E2,-1E0,1.7386392E-2,5.6337513E-2,-4.7901575E-2,5.2611735E-2,5.453837E-2,2.7058486E-2,-6.2067878E-2,2.5678733E-2,-2.2411866E-2,2.3617458E-2,-6.914406E-2,8.0527635E-3,1.2795374E-2,-5.70319E-2,-6.2127497E-2,4.0697835E-2],"split_indices":[9,18,6,0,12,0,5,8,5,17,16,5,17,6,0,0,0,1,0,16,0,3,6,16,4,0,0,0,0,0,0,0,0,0,0,0,0,0,0,0,0],"split_type":[0,0,0,0,0,0,0,0,0,0,0,0,0,0,0,0,0,0,0,0,0,0,0,0,0,0,0,0,0,0,0,0,0,0,0,0,0,0,0,0,0],"sum_hessian":[7.840983E2,6.153415E2,1.6875682E2,4.624832E1,5.6909314E2,1.3612662E2,3.2630207E1,4.9334753E2,7.5745636E1,8.356005E0,2.4274204E1,3.573717E2,1.3597583E2,5.2585003E1,2.3160627E1,7.3110065E0,1.044998E0,5.2452707E0,1.9028934E1,3.0372528E2,5.364641E1,1.2249581E2,1.3480027E1,2.2792263E1,2.979274E1,1.6931784E0,5.617828E0,2.273292E0,2.9719787E0,2.2544794E2,7.8277336E1,1.25446415E1,4.1101772E1,3.3919437E1,8.857637E1,1.2465933E1,1.0140945E0,7.2522883E0,1.5539975E1,4.3639803E0,2.542876E1],"tree_param":{"num_deleted":"0","num_feature":"20","num_nodes":"41","size_leaf_vector":"1"}},{"base_weights":[1.5149606E-8,1.6054533E-1,-5.872045E-1,-6.403069E-2,2.2571093E-1,-6.625557E-2,-2.6200545E-1,-7.4826956E-2,3.367157E-1,3.2992926E-1,-4.738264E-1,1.2900557E-2,-5.6570226E-1,4.4353095E-1,7.737035E-2,4.6524858E-1,-3.904846E-2,8.3649516E-2,-6.2284112E-2,-5.0714772E-2,6.2046606E-2,-6.9338135E-2,1.6842753E-1,4.9745965E-1,1.4157994E-1,4.550201E-1,-3.0595848E-2,1.187926E-2,5.4495074E-2,-4.6253256E-2,5.097751E-2,-2.5109737E-4,-7.332482E-2,-4.1000605E-2,5.232179E-2,-1.0450506E-2,5.2131362E-2,2.7678112E-2,-7.117693E-2,-4.1166443E-2,5.0775617E-2,1.1675092E-2,-6.227501E-2],"categories":[],"categories_nodes":[],"categories_segments":[],"categories_sizes":[],"default_left":[0,0,1,0,1,0,1,0,0,0,0,0,0,0,0,0,0,1,0,0,0,0,1,0,0,0,0,0,0,0,0,0,0,0,0,0,0,0,0,0,0,0,0],"id":9,"left_children":[1,3,5,-1,7,-1,9,11,13,15,17,19,21,23,25,27,-1,29,-1,31,-1,-1,33,35,37,39,41,-1,-1,-1,-1,-1,-1,-1,-1,-1,-1,-1,-1,-1,-1,-1,-1],"loss_changes":[7.314498E1,3.1942635E1,3.9084435E0,0E0,1.8847221E1,0E0,4.293021E0,6.5958214E0,1.1384289E1,1.0867542E0,2.104638E0,5.086054E0,2.293221E0,4.6801987E0,4.966066E0,1.6369212E-1,0E0,1.653897E0,0E0,3.9234128E0,0E0,0E0,1.0856096E0,3.6031075E0,5.4588404E0,1.4460888E0,8.395615E0,0E0,0E0,0E0,0E0,0E0,0E0,0E0,0E0,0E0,0E0,0E0,0E0,0E0,0E0,0E0,0E0],"parents":[2147483647,0,0,1,1,2,2,4,4,6,6,7,7,8,8,9,9,10,10,11,11,12,12,13,13,14,14,15,15,17,17,19,19,22,22,23,23,24,24,25,25,26,26],"right_children":[2,4,6,-1,8,-1,10,12,14,16,18,20,22,24,26,28,-1,30,-1,32,-1,-1,34,36,38,40,42,-1,-1,-1,-1,-1,-1,-1,-1,-1,-1,-1,-1,-1,-1,-1,-1],"split_conditions":[1.5E0,1E0,-4E0,-6.403069E-2,-1E0,-6.625557E-2,-7.8E1,1E0,1.67E2,1.29E3,7.85E2,1.04E2,1E0,4E0,-4.2E1,-1E0,-3.904846E-2,2E0,-6.2284112E-2,3.7E1,6.2046606E-2,-6.9338135E-2,-8E0,-2.317E3,1E0,1E0,7.8E2,1.187926E-2,5.4495074E-2,-4.6253256E-2,5.097751E-2,-2.5109737E-4,-7.332482E-2,-4.1000605E-2,5.232179E-2,-1.0450506E-2,5.2131362E-2,2.7678112E-2,-7.117693E-2,-4.1166443E-2,5.0775617E-2,1.1675092E-2,-6.227501E-2],"split_indices":[9,18,6,0,3,0,5,5,8,17,16,15,0,5,5,0,0,1,0,15,0,0,6,7,9,2,8,0,0,0,0,0,0,0,0,0,0,0,0,0,0,0,0],"split_type":[0,0,0,0,0,0,0,0,0,0,0,0,0,0,0,0,0,0,0,0,0,0,0,0,0,0,0,0,0,0,0,0,0,0,0,0,0,0,0,0,0,0,0],"sum_hessian":[7.7388513E2,6.082991E2,1.6558609E2,4.5108803E1,5.6319025E2,1.3359396E2,3.1992136E1,1.5199637E2,4.111939E2,8.284229E0,2.3707907E1,1.2977682E2,2.2219538E1,2.9073868E2,1.2045523E2,7.2724056E0,1.0118238E0,5.0930495E0,1.8614857E1,1.18306076E2,1.1470746E1,1.8974943E1,3.2445946E0,2.4613182E2,4.4606846E1,2.6065947E1,9.438928E1,1.8258972E0,5.4465084E0,2.1946466E0,2.898403E0,1.1143937E2,6.866706E0,1.1743541E0,2.0702405E0,9.25278E0,2.3687904E2,3.9089344E1,5.5175037E0,1.104704E0,2.4961243E1,7.622494E1,1.8164347E1],"tree_param":{"num_deleted":"0","num_feature":"20","num_nodes":"43","size_leaf_vector":"1"}},{"base_weights":[-1.06894866E-7,1.5500672E-1,-5.747262E-1,-6.2527984E-2,2.1629123E-1,-6.4749174E-2,-2.5977486E-1,3.0454072E-1,-1.1367084E-1,2.9470393E-1,-4.6244112E-1,3.600142E-1,-2.039818E-1,1.5789175E-2,-6.659432E-2,-8.8189065E-2,4.5268696E-2,7.038192E-2,-6.0738247E-2,4.4032443E-1,1.1511784E-1,-5.9377646E-1,5.1964115E-2,-1.1579799E-1,4.913421E-1,-5.0425626E-2,3.847564E-2,-4.529782E-2,4.922301E-2,4.9858537E-2,2.4004221E-2,4.3736815E-2,-3.8516999E-3,3.868477E-2,-6.942267E-2,-4.1146155E-2,3.2557447E-2,4.2418044E-2,-2.2231473E-2,6.655389E-3,5.304697E-2],"categories":[],"categories_nodes":[],"categories_segments":[],"categories_sizes":[],"default_left":[0,0,1,0,0,0,1,0,0,0,0,0,0,0,0,1,0,1,0,1,0,0,0,0,0,0,0,0,0,0,0,0,0,0,0,0,0,0,0,0,0],"id":10,"left_children":[1,3,5,-1,7,-1,9,11,13,15,17,19,21,23,-1,25,-1,27,-1,29,31,33,35,37,39,-1,-1,-1,-1,-1,-1,-1,-1,-1,-1,-1,-1,-1,-1,-1,-1],"loss_changes":[6.814018E1,2.8941933E1,3.5552635E0,0E0,1.6320282E1,0E0,3.7504869E0,1.2528908E1,8.500477E0,5.976265E-1,1.8917856E0,7.7862473E0,4.427232E0,6.137638E0,0E0,8.8862026E-1,0E0,1.5512437E0,0E0,3.3775368E0,4.955661E0,1.9969869E0,3.6234388E0,4.518572E0,3.179102E-1,0E0,0E0,0E0,0E0,0E0,0E0,0E0,0E0,0E0,0E0,0E0,0E0,0E0,0E0,0E0,0E0],"parents":[2147483647,0,0,1,1,2,2,4,4,6,6,7,7,8,8,9,9,10,10,11,11,12,12,13,13,15,15,17,17,19,19,20,20,21,21,22,22,23,23,24,24],"right_children":[2,4,6,-1,8,-1,10,12,14,16,18,20,22,24,-1,26,-1,28,-1,30,32,34,36,38,40,-1,-1,-1,-1,-1,-1,-1,-1,-1,-1,-1,-1,-1,-1,-1,-1],"split_conditions":[1.5E0,1E0,-4E0,-6.2527984E-2,3E0,-6.4749174E-2,-7.8E1,4.88E2,-1E0,7E0,7.85E2,1.7E1,4.967E3,2.5E1,-6.659432E-2,-8E1,4.5268696E-2,2E0,-6.0738247E-2,1.195E3,1E0,3E0,1E0,-6.5E1,2.354E3,-5.0425626E-2,3.847564E-2,-4.529782E-2,4.922301E-2,4.9858537E-2,2.4004221E-2,4.3736815E-2,-3.8516999E-3,3.868477E-2,-6.942267E-2,-4.1146155E-2,3.2557447E-2,4.2418044E-2,-2.2231473E-2,6.655389E-3,5.304697E-2],"split_indices":[9,18,6,0,12,0,5,8,5,3,16,15,16,6,0,5,0,1,0,16,19,16,3,5,16,0,0,0,0,0,0,0,0,0,0,0,0,0,0,0,0],"split_type":[0,0,0,0,0,0,0,0,0,0,0,0,0,0,0,0,0,0,0,0,0,0,0,0,0,0,0,0,0,0,0,0,0,0,0,0,0,0,0,0,0],"sum_hessian":[7.628769E2,6.014049E2,1.6147197E2,4.312507E1,5.5827985E2,1.3030972E2,3.1162235E1,4.4053445E2,1.1774542E2,8.219687E0,2.2942549E1,3.974677E2,4.306673E1,9.617267E1,2.157275E1,2.5299056E0,5.689782E0,5.0163198E0,1.7926228E1,2.9871155E2,9.875616E1,1.6546776E1,2.6519957E1,7.592144E1,2.025123E1,1.3106637E0,1.2192419E0,2.205858E0,2.8104618E0,2.3024518E2,6.846638E1,3.128623E1,6.7469925E1,1.2725582E0,1.5274218E1,9.657986E0,1.686197E1,1.2017477E1,6.390396E1,1.9358324E0,1.83154E1],"tree_param":{"num_deleted":"0","num_feature":"20","num_nodes":"41","size_leaf_vector":"1"}},{"base_weights":[-2.3089152E-8,1.4766827E-1,-5.627429E-1,-6.1109006E-2,2.0538034E-1,-6.335876E-2,-2.5963292E-1,2.6678178E-1,-2.1532162E-1,2.4366434E-1,-4.5167556E-1,3.5378328E-1,3.847318E-2,-2.281575E-2,-6.600409E-2,4.328344E-1,-5.1783323E-2,7.766395E-2,-5.931261E-2,3.2539073E-2,4.0503302E-1,1.0459762E-1,-5.8138984E-1,-3.1147295E-1,2.0177117E-1,1.50336865E-2,4.8584413E-2,-4.338621E-2,4.7804635E-2,5.165564E-2,-1.8422205E-2,2.4718456E-2,5.0938945E-2,3.985202E-2,-1.9094086E-3,-6.3710235E-2,4.298236E-3,1.0870366E-2,-5.1074516E-2,-5.6340475E-2,3.408253E-2],"categories":[],"categories_nodes":[],"categories_segments":[],"categories_sizes":[],"default_left":[0,0,1,0,0,0,1,0,0,1,0,1,0,0,0,0,0,1,0,0,0,0,1,0,1,0,0,0,0,0,0,0,0,0,0,0,0,0,0,0,0],"id":11,"left_children":[1,3,5,-1,7,-1,9,11,13,15,17,19,21,23,-1,25,-1,27,-1,29,31,33,35,37,39,-1,-1,-1,-1,-1,-1,-1,-1,-1,-1,-1,-1,-1,-1,-1,-1],"loss_changes":[6.2658646E1,2.6280464E1,3.2011452E0,0E0,1.44151535E1,0E0,3.143752E0,9.629459E0,6.092703E0,1.5664464E0,1.7733488E0,5.772133E0,5.597314E0,3.3578372E0,0E0,4.6890974E-2,0E0,1.3847892E0,0E0,5.281654E0,4.864662E0,4.4758444E0,4.8560667E-1,1.9506369E0,3.298116E0,0E0,0E0,0E0,0E0,0E0,0E0,0E0,0E0,0E0,0E0,0E0,0E0,0E0,0E0,0E0,0E0],"parents":[2147483647,0,0,1,1,2,2,4,4,6,6,7,7,8,8,9,9,10,10,11,11,12,12,13,13,15,15,17,17,19,19,20,20,21,21,22,22,23,23,24,24],"right_children":[2,4,6,-1,8,-1,10,12,14,16,18,20,22,24,-1,26,-1,28,-1,30,32,34,36,38,40,-1,-1,-1,-1,-1,-1,-1,-1,-1,-1,-1,-1,-1,-1,-1,-1],"split_conditions":[1.5E0,1E0,-4E0,-6.1109006E-2,4E0,-6.335876E-2,-7.8E1,1.67E2,-7E0,9E0,7.85E2,-6.4E1,1E3,-1E0,-6.600409E-2,7E0,-5.1783323E-2,2E0,-5.931261E-2,1E0,0E0,1E0,3.2E1,6.14E2,-1E0,1.50336865E-2,4.8584413E-2,-4.338621E-2,4.7804635E-2,5.165564E-2,-1.8422205E-2,2.4718456E-2,5.0938945E-2,3.985202E-2,-1.9094086E-3,-6.3710235E-2,4.298236E-3,1.0870366E-2,-5.1074516E-2,-5.6340475E-2,3.408253E-2],"split_indices":[9,18,6,0,12,0,5,8,5,12,16,5,17,6,0,3,0,1,0,2,3,19,6,16,4,0,0,0,0,0,0,0,0,0,0,0,0,0,0,0,0],"split_type":[0,0,0,0,0,0,0,0,0,0,0,0,0,0,0,0,0,0,0,0,0,0,0,0,0,0,0,0,0,0,0,0,0,0,0,0,0,0,0,0,0],"sum_hessian":[7.520215E2,5.962882E2,1.5573328E2,4.1470757E1,5.5481744E2,1.253463E2,3.0386988E1,4.8447433E2,7.034315E1,8.3182E0,2.2068787E1,3.5039847E2,1.3407585E2,4.9826168E1,2.0516977E1,7.0087085E0,1.3094914E0,4.7487717E0,1.7320015E1,4.8434654E1,3.019638E2,1.2190301E2,1.2172853E1,2.1633799E1,2.8192371E1,1.7134541E0,5.295254E0,2.048281E0,2.7004905E0,1.4553751E1,3.3880905E1,1.2152106E2,1.8044275E2,3.544793E1,8.645507E1,1.1156936E1,1.0159183E0,7.105645E0,1.4528153E1,3.8661785E0,2.4326193E1],"tree_param":{"num_deleted":"0","num_feature":"20","num_nodes":"41","size_leaf_vector":"1"}},{"base_weights":[5.57485E-8,1.417695E-1,-5.5066645E-1,-5.999977E-2,1.9747269E-1,-6.2123057E-2,-2.4272223E-1,-6.481897E-2,2.9280055E-1,2.9894474E-1,-4.423659E-1,1.1877907E-2,-5.232384E-1,3.8369846E-1,6.5816276E-2,4.4496125E-1,-3.7976243E-2,6.992219E-2,-5.8104653E-2,-4.5732915E-2,5.748647E-2,1.4532581E-1,-6.497028E-2,6.501559E-1,2.965903E-1,-3.7689295E-1,2.5544405E-1,1.5915774E-2,5.1598426E-2,-4.2491045E-2,4.665194E-2,1.0853647E-2,-2.418685E-2,4.7431264E-2,-3.6674317E-2,6.81279E-2,3.90655E-2,4.3048974E-2,4.3634796E-3,-4.9749568E-2,2.565111E-2,3.825156E-2,-3.7675496E-4],"categories":[],"categories_nodes":[],"categories_segments":[],"categories_sizes":[],"default_left":[0,0,1,0,1,0,1,0,1,0,0,0,0,0,1,0,0,1,0,0,0,0,0,0,0,0,1,0,0,0,0,0,0,0,0,0,0,0,0,0,0,0,0],"id":12,"left_children":[1,3,5,-1,7,-1,9,11,13,15,17,19,21,23,25,27,-1,29,-1,31,-1,33,-1,35,37,39,41,-1,-1,-1,-1,-1,-1,-1,-1,-1,-1,-1,-1,-1,-1,-1,-1],"loss_changes":[5.8048965E1,2.4551659E1,3.157341E0,0E0,1.3790537E1,0E0,3.3789103E0,5.1970034E0,8.313221E0,1.0294073E0,1.6277966E0,4.160138E0,1.8853893E0,6.5004883E0,9.89925E0,7.225835E-2,0E0,1.3074198E0,0E0,3.5527358E0,0E0,8.792565E-1,0E0,3.0089188E-1,7.404478E0,2.8335028E0,2.7139115E0,0E0,0E0,0E0,0E0,0E0,0E0,0E0,0E0,0E0,0E0,0E0,0E0,0E0,0E0,0E0,0E0],"parents":[2147483647,0,0,1,1,2,2,4,4,6,6,7,7,8,8,9,9,10,10,11,11,12,12,13,13,14,14,15,15,17,17,19,19,21,21,23,23,24,24,25,25,26,26],"right_children":[2,4,6,-1,8,-1,10,12,14,16,18,20,22,24,26,28,-1,30,-1,32,-1,34,-1,36,38,40,42,-1,-1,-1,-1,-1,-1,-1,-1,-1,-1,-1,-1,-1,-1,-1,-1],"split_conditions":[1.5E0,1E0,-4E0,-5.999977E-2,-1E0,-6.2123057E-2,-7.8E1,1E0,1.227E3,1.29E3,7.85E2,1.04E2,-2.587E3,1E0,-2E0,1E0,-3.7976243E-2,2E0,-5.8104653E-2,-3.1E1,5.748647E-2,2.674E3,-6.497028E-2,-1E0,5E-1,2.7061E4,-4E0,1.5915774E-2,5.1598426E-2,-4.2491045E-2,4.665194E-2,1.0853647E-2,-2.418685E-2,4.7431264E-2,-3.6674317E-2,6.81279E-2,3.90655E-2,4.3048974E-2,4.3634796E-3,-4.9749568E-2,2.565111E-2,3.825156E-2,-3.7675496E-4],"split_indices":[9,18,6,0,3,0,5,5,16,17,16,15,7,19,6,6,0,1,0,8,0,16,0,5,9,7,5,0,0,0,0,0,0,0,0,0,0,0,0,0,0,0,0],"split_type":[0,0,0,0,0,0,0,0,0,0,0,0,0,0,0,0,0,0,0,0,0,0,0,0,0,0,0,0,0,0,0,0,0,0,0,0,0,0,0,0,0,0,0],"sum_hessian":[7.415722E2,5.903331E2,1.5123909E2,4.0552155E1,5.4978094E2,1.2221638E2,2.902271E1,1.4663614E2,4.0314484E2,7.6822042E0,2.1340508E1,1.2645362E2,2.0182512E1,2.873732E2,1.1577164E2,6.6055007E0,1.0767033E0,4.651949E0,1.6688559E1,1.15548256E2,1.0905365E1,3.186685E0,1.6995827E1,6.9207825E1,2.1816536E2,3.442192E1,8.134972E1,1.9598405E0,4.6456604E0,2.037891E0,2.6140578E0,6.492694E1,5.0621315E1,1.9850751E0,1.2016101E0,6.0345028E1,8.862794E0,1.4219437E2,7.597099E1,2.9096413E1,5.325509E0,5.426974E1,2.7079977E1],"tree_param":{"num_deleted":"0","num_feature":"20","num_nodes":"43","size_leaf_vector":"1"}},{"base_weights":[3.2440187E-8,1.3859908E-1,-5.4319525E-1,-5.9010085E-2,1.932321E-1,-6.1112937E-2,-2.4828626E-1,-7.0572585E-2,2.9173946E-1,2.8672057E-1,-4.3895933E-1,-1.1663781E-3,-5.075764E-1,4.3942428E-1,1.3427338E-1,4.3246368E-1,-3.687267E-2,5.137028E-2,-5.711581E-2,-5.5579916E-2,5.5032056E-2,1.3783325E-1,-6.3185506E-2,5.023337E-1,5.0537176E-2,2.3617068E-1,-1.4298467E-1,1.290113E-2,4.9211703E-2,-4.232737E-2,4.553002E-2,-9.578609E-4,-7.033962E-2,4.574498E-2,-3.5656523E-2,1.0785972E-3,5.518033E-2,2.6902532E-2,-6.707915E-2,2.616922E-2,-5.332915E-2,3.481185E-3,-4.323381E-2],"categories":[],"categories_nodes":[],"categories_segments":[],"categories_sizes":[],"default_left":[0,0,1,0,1,0,1,0,0,0,0,0,0,0,0,0,0,1,0,0,0,0,0,0,0,0,0,0,0,0,0,0,0,0,0,0,0,0,0,0,0,0,0],"id":13,"left_children":[1,3,5,-1,7,-1,9,11,13,15,17,19,21,23,25,27,-1,29,-1,31,-1,33,-1,35,37,39,41,-1,-1,-1,-1,-1,-1,-1,-1,-1,-1,-1,-1,-1,-1,-1,-1],"loss_changes":[5.5099125E1,2.3327229E1,2.8289108E0,0E0,1.4135796E1,0E0,3.1392088E0,4.5030828E0,9.142792E0,9.5867586E-1,1.4666128E0,3.905773E0,1.7192483E0,4.9591484E0,5.484709E0,6.874049E-2,0E0,1.2713654E0,0E0,3.523057E0,0E0,8.120114E-1,0E0,4.2558403E0,4.8268394E0,2.9176345E0,2.7147026E0,0E0,0E0,0E0,0E0,0E0,0E0,0E0,0E0,0E0,0E0,0E0,0E0,0E0,0E0,0E0,0E0],"parents":[2147483647,0,0,1,1,2,2,4,4,6,6,7,7,8,8,9,9,10,10,11,11,12,12,13,13,14,14,15,15,17,17,19,19,21,21,23,23,24,24,25,25,26,26],"right_children":[2,4,6,-1,8,-1,10,12,14,16,18,20,22,24,26,28,-1,30,-1,32,-1,34,-1,36,38,40,42,-1,-1,-1,-1,-1,-1,-1,-1,-1,-1,-1,-1,-1,-1,-1,-1],"split_conditions":[1.5E0,1E0,-4E0,-5.9010085E-2,-1E0,-6.1112937E-2,-7.8E1,1E0,1.1E1,1.29E3,7.85E2,1.04E2,-2.587E3,4E0,2.1E1,-1E0,-3.687267E-2,2E0,-5.711581E-2,3.7E1,5.5032056E-2,2.674E3,-6.3185506E-2,-9.47E2,5E-1,1E3,1E0,1.290113E-2,4.9211703E-2,-4.232737E-2,4.553002E-2,-9.578609E-4,-7.033962E-2,4.574498E-2,-3.5656523E-2,1.0785972E-3,5.518033E-2,2.6902532E-2,-6.707915E-2,2.616922E-2,-5.332915E-2,3.481185E-3,-4.323381E-2],"split_indices":[9,18,6,0,3,0,5,5,8,17,16,15,7,5,15,0,0,1,0,15,0,16,0,7,9,17,10,0,0,0,0,0,0,0,0,0,0,0,0,0,0,0,0],"split_type":[0,0,0,0,0,0,0,0,0,0,0,0,0,0,0,0,0,0,0,0,0,0,0,0,0,0,0,0,0,0,0,0,0,0,0,0,0,0,0,0,0,0,0],"sum_hessian":[7.298608E2,5.820839E2,1.4777684E2,3.991348E1,5.421705E2,1.19237495E2,2.8539345E1,1.474853E2,3.9468512E2,7.366384E0,2.117296E1,1.281369E2,1.9348402E1,2.0274416E2,1.9194098E2,6.3046937E0,1.0616904E0,4.626082E0,1.6546879E1,1.174479E2,1.0689009E1,3.1065009E0,1.6241901E1,1.7426237E2,2.8481775E1,1.4046556E2,5.147542E1,1.5553613E0,4.7493324E0,2.1048534E0,2.5212286E0,1.10608406E2,6.839495E0,1.9321483E0,1.1743524E0,1.6045582E1,1.582168E2,2.2341614E1,6.140161E0,1.365949E2,3.8706737E0,3.242884E1,1.904658E1],"tree_param":{"num_deleted":"0","num_feature":"20","num_nodes":"43","size_leaf_vector":"1"}},{"base_weights":[-3.202094E-8,1.3601635E-1,-5.365502E-1,-5.81173E-2,1.8924983E-1,-6.0222037E-2,-2.4742694E-1,2.724188E-1,-1.18231446E-1,2.745597E-1,-4.3227834E-1,3.2857463E-1,-2.2062582E-1,4.404062E-1,-2.1517043E-1,4.2023164E-1,-3.6000855E-2,4.8084974E-2,-5.617819E-2,4.017626E-1,9.9948354E-2,-5.6560665E-1,5.183604E-3,4.5917556E-2,5.6679226E-2,-6.2843814E-2,-1.0007207E-1,1.23047475E-2,4.8002865E-2,-4.1330446E-2,4.430689E-2,4.56469E-2,2.2509072E-2,4.034641E-2,-4.3382877E-3,3.6686186E-2,-6.5925024E-2,-4.102887E-2,2.618418E-2,-4.9227856E-2,4.8097655E-2,-2.3337135E-2,3.116611E-2],"categories":[],"categories_nodes":[],"categories_segments":[],"categories_sizes":[],"default_left":[0,0,1,0,0,0,1,0,0,0,0,0,0,0,1,0,0,1,0,1,0,0,0,0,0,0,0,0,0,0,0,0,0,0,0,0,0,0,0,0,0,0,0],"id":14,"left_children":[1,3,5,-1,7,-1,9,11,13,15,17,19,21,23,25,27,-1,29,-1,31,33,35,37,39,-1,-1,41,-1,-1,-1,-1,-1,-1,-1,-1,-1,-1,-1,-1,-1,-1,-1,-1],"loss_changes":[5.254757E1,2.2040297E1,2.615757E0,0E0,1.3725977E1,0E0,2.8831136E0,1.1750437E1,6.3062167E0,9.0041566E-1,1.3673539E0,6.3024406E0,3.4091284E0,8.359549E-1,4.6181993E0,6.626034E-2,0E0,1.184786E0,0E0,2.6692429E0,4.074156E0,1.7531114E0,3.0311441E0,1.4738044E0,0E0,0E0,4.3626194E0,0E0,0E0,0E0,0E0,0E0,0E0,0E0,0E0,0E0,0E0,0E0,0E0,0E0,0E0,0E0,0E0],"parents":[2147483647,0,0,1,1,2,2,4,4,6,6,7,7,8,8,9,9,10,10,11,11,12,12,13,13,14,14,15,15,17,17,19,19,20,20,21,21,22,22,23,23,26,26],"right_children":[2,4,6,-1,8,-1,10,12,14,16,18,20,22,24,26,28,-1,30,-1,32,34,36,38,40,-1,-1,42,-1,-1,-1,-1,-1,-1,-1,-1,-1,-1,-1,-1,-1,-1,-1,-1],"split_conditions":[1.5E0,1E0,-4E0,-5.81173E-2,3E0,-6.0222037E-2,-7.8E1,4.88E2,-6.5E1,1.29E3,7.85E2,1.7E1,4.967E3,2.54E2,-4E1,-1E0,-3.6000855E-2,2E0,-5.617819E-2,1.103E3,1E0,3E0,1E0,1E0,5.6679226E-2,-6.2843814E-2,3.2E1,1.23047475E-2,4.8002865E-2,-4.1330446E-2,4.430689E-2,4.56469E-2,2.2509072E-2,4.034641E-2,-4.3382877E-3,3.6686186E-2,-6.5925024E-2,-4.102887E-2,2.618418E-2,-4.9227856E-2,4.8097655E-2,-2.3337135E-2,3.116611E-2],"split_indices":[9,18,6,0,12,0,5,8,5,17,16,15,16,8,5,0,0,1,0,16,19,16,3,6,0,0,15,0,0,0,0,0,0,0,0,0,0,0,0,0,0,0,0],"split_type":[0,0,0,0,0,0,0,0,0,0,0,0,0,0,0,0,0,0,0,0,0,0,0,0,0,0,0,0,0,0,0,0,0,0,0,0,0,0,0,0,0,0,0],"sum_hessian":[7.1803076E2,5.7341547E2,1.446153E2,3.8935703E1,5.3447974E2,1.169654E2,2.7649899E1,4.2077942E2,1.1370033E2,7.1040516E0,2.0545847E1,3.7805414E2,4.2725292E1,1.6288755E1,9.7411575E1,6.052421E0,1.0516305E0,4.4963555E0,1.604949E1,2.858048E2,9.224932E1,1.6307175E1,2.6418118E1,4.2831326E0,1.2005622E1,2.024841E1,7.716317E1,1.526022E0,4.526399E0,2.0524547E0,2.4439006E0,2.1702074E2,6.878407E1,2.9007862E1,6.3241455E1,1.2219368E0,1.50852375E1,9.859389E0,1.655873E1,1.8558297E0,2.4273028E0,5.8618523E1,1.8544645E1],"tree_param":{"num_deleted":"0","num_feature":"20","num_nodes":"43","size_leaf_vector":"1"}},{"base_weights":[-7.273311E-8,1.3010123E-1,-5.2794695E-1,-5.7225294E-2,1.8110913E-1,-5.9317853E-2,-2.4394242E-1,2.8305736E-1,-5.8512203E-2,2.6507866E-1,-4.2585528E-1,3.541529E-1,-4.848112E-2,4.0660357E-1,-1.4019643E-1,4.0799543E-1,-3.4989577E-2,4.8616774E-2,-5.5241074E-2,4.2087844E-1,1.5127102E-1,4.7914203E-2,-5.769498E-2,6.198277E-2,1.8715945E-1,3.4759435E-4,-4.5749804E-1,1.2893185E-2,4.813696E-2,-4.0204503E-2,4.3342307E-2,6.8235076E-3,4.690269E-2,5.61749E-2,-7.7966684E-3,-7.897378E-3,4.2544257E-2,-5.12663E-2,3.8756173E-2,-4.7118712E-2,9.457436E-3,-6.602429E-2,-2.2473533E-2],"categories":[],"categories_nodes":[],"categories_segments":[],"categories_sizes":[],"default_left":[0,0,1,0,0,0,1,0,0,0,0,1,0,0,0,0,0,1,0,1,0,0,0,0,0,0,0,0,0,0,0,0,0,0,0,0,0,0,0,0,0,0,0],"id":15,"left_children":[1,3,5,-1,7,-1,9,11,13,15,17,19,21,23,25,27,-1,29,-1,31,33,35,-1,-1,37,39,41,-1,-1,-1,-1,-1,-1,-1,-1,-1,-1,-1,-1,-1,-1,-1,-1],"loss_changes":[4.863985E1,2.0457485E1,2.4490433E0,0E0,1.2974407E1,0E0,2.69165E0,8.792231E0,6.1033754E0,8.413627E-1,1.2818718E0,4.087818E0,3.4211886E0,1.0084021E0,6.070203E0,7.945454E-2,0E0,1.0968435E0,0E0,3.8767624E0,7.3324323E0,2.7767007E0,0E0,0E0,2.0604713E0,4.2802563E0,1.8234596E0,0E0,0E0,0E0,0E0,0E0,0E0,0E0,0E0,0E0,0E0,0E0,0E0,0E0,0E0,0E0,0E0],"parents":[2147483647,0,0,1,1,2,2,4,4,6,6,7,7,8,8,9,9,10,10,11,11,12,12,13,13,14,14,15,15,17,17,19,19,20,20,21,21,24,24,25,25,26,26],"right_children":[2,4,6,-1,8,-1,10,12,14,16,18,20,22,24,26,28,-1,30,-1,32,34,36,-1,-1,38,40,42,-1,-1,-1,-1,-1,-1,-1,-1,-1,-1,-1,-1,-1,-1,-1,-1],"split_conditions":[1.5E0,1E0,-4E0,-5.7225294E-2,1.67E2,-5.9317853E-2,-7.8E1,3E0,-5.8E1,1.29E3,7.85E2,1.047E3,-1E0,1E0,6.47E2,1E0,-3.4989577E-2,2E0,-5.5241074E-2,-6.4E1,2E0,3.1E1,-5.769498E-2,6.198277E-2,-1.1E1,0E0,5.011E3,1.2893185E-2,4.813696E-2,-4.0204503E-2,4.3342307E-2,6.8235076E-3,4.690269E-2,5.61749E-2,-7.7966684E-3,-7.897378E-3,4.2544257E-2,-5.12663E-2,3.8756173E-2,-4.7118712E-2,9.457436E-3,-6.602429E-2,-2.2473533E-2],"split_indices":[9,18,6,0,8,0,5,12,5,17,16,16,5,19,8,6,0,1,0,5,15,6,0,0,6,0,7,0,0,0,0,0,0,0,0,0,0,0,0,0,0,0,0],"split_type":[0,0,0,0,0,0,0,0,0,0,0,0,0,0,0,0,0,0,0,0,0,0,0,0,0,0,0,0,0,0,0,0,0,0,0,0,0,0,0,0,0,0,0],"sum_hessian":[7.06142E2,5.671368E2,1.3900525E2,3.770725E1,5.294295E2,1.1215607E2,2.6849186E1,3.712836E2,1.5814592E2,6.948633E0,1.9900553E1,3.0566763E2,6.5615974E1,2.3030556E1,1.3511537E2,5.9114165E0,1.0372167E0,4.3200393E0,1.5580514E1,2.2920891E2,7.645871E1,5.6262707E1,9.353266E0,1.0755438E1,1.2275118E1,9.433153E1,4.078384E1,1.804719E0,4.1066976E0,1.9691231E0,2.350916E0,2.7826012E1,2.013829E2,2.6878672E1,4.958004E1,4.2701477E1,1.3561232E1,2.3857386E0,9.889379E0,1.5044494E1,7.928703E1,2.0815891E1,1.9967949E1],"tree_param":{"num_deleted":"0","num_feature":"20","num_nodes":"43","size_leaf_vector":"1"}},{"base_weights":[3.611161E-8,1.273757E-1,-5.223772E-1,-5.644384E-2,1.7616105E-1,-5.85917E-2,-2.4305092E-1,-7.025835E-2,2.6749924E-1,2.4620262E-1,-4.1894707E-1,7.440805E-2,-2.7222788E-1,3.3721706E-1,-1.1253075E-2,3.8654536E-1,-3.4246236E-2,4.7213238E-2,-5.441603E-2,3.1386784E-1,-8.4483616E-2,4.252244E-1,-3.9573085E-1,3.8941136E-1,9.753507E-2,4.1160616E-1,-1.6759579E-1,8.335816E-3,4.6099022E-2,-3.929281E-2,4.247847E-2,4.2175755E-2,-1.150347E-2,1.8278878E-3,-4.7535386E-2,1.565827E-2,5.4746013E-2,-8.20698E-3,-5.812232E-2,5.253132E-2,2.8000105E-2,2.0139482E-2,-6.5984674E-2,-8.409213E-3,5.0322324E-2,3.0470138E-2,-3.2574523E-2],"categories":[],"categories_nodes":[],"categories_segments":[],"categories_sizes":[],"default_left":[0,0,1,0,1,0,1,0,0,0,0,1,0,0,0,0,0,1,0,1,0,0,0,0,0,0,0,0,0,0,0,0,0,0,0,0,0,0,0,0,0,0,0,0,0,0,0],"id":16,"left_children":[1,3,5,-1,7,-1,9,11,13,15,17,19,21,23,25,27,-1,29,-1,31,33,35,37,39,41,43,45,-1,-1,-1,-1,-1,-1,-1,-1,-1,-1,-1,-1,-1,-1,-1,-1,-1,-1,-1,-1],"loss_changes":[4.6315163E1,1.8986622E1,2.2794495E0,0E0,1.1801758E1,0E0,2.4264274E0,4.179849E0,7.4304943E0,7.74215E-1,1.2063723E0,3.2124438E0,5.304564E0,3.7866592E0,5.1875405E0,1.1377084E-1,0E0,1.0315756E0,0E0,1.6038537E0,2.0621247E0,2.2467518E-1,2.9298363E0,3.5808945E0,4.538333E0,1.0045667E0,4.374382E0,0E0,0E0,0E0,0E0,0E0,0E0,0E0,0E0,0E0,0E0,0E0,0E0,0E0,0E0,0E0,0E0,0E0,0E0,0E0,0E0],"parents":[2147483647,0,0,1,1,2,2,4,4,6,6,7,7,8,8,9,9,10,10,11,11,12,12,13,13,14,14,15,15,17,17,19,19,20,20,21,21,22,22,23,23,24,24,25,25,26,26],"right_children":[2,4,6,-1,8,-1,10,12,14,16,18,20,22,24,26,28,-1,30,-1,32,34,36,38,40,42,44,46,-1,-1,-1,-1,-1,-1,-1,-1,-1,-1,-1,-1,-1,-1,-1,-1,-1,-1,-1,-1],"split_conditions":[1.5E0,1E0,-4E0,-5.644384E-2,-1E0,-5.85917E-2,-7.8E1,2.2E1,3.35E2,1.29E3,7.85E2,3E0,-7.9E1,4E0,-4.2E1,-1E0,-3.4246236E-2,2E0,-5.441603E-2,4.44E2,5.32E2,-3.5E1,1.1E1,1E0,1E0,1E0,3E0,8.335816E-3,4.6099022E-2,-3.929281E-2,4.247847E-2,4.2175755E-2,-1.150347E-2,1.8278878E-3,-4.7535386E-2,1.565827E-2,5.4746013E-2,-8.20698E-3,-5.812232E-2,5.253132E-2,2.8000105E-2,2.0139482E-2,-6.5984674E-2,-8.409213E-3,5.0322324E-2,3.0470138E-2,-3.2574523E-2],"split_indices":[9,18,6,0,3,0,5,14,8,17,16,15,5,5,5,0,0,1,0,7,17,6,15,12,9,3,15,0,0,0,0,0,0,0,0,0,0,0,0,0,0,0,0,0,0,0,0],"split_type":[0,0,0,0,0,0,0,0,0,0,0,0,0,0,0,0,0,0,0,0,0,0,0,0,0,0,0,0,0,0,0,0,0,0,0,0,0,0,0,0,0,0,0,0,0,0,0],"sum_hessian":[6.9406934E2,5.5861395E2,1.3545541E2,3.610119E1,5.2251276E2,1.0945866E2,2.5996754E1,1.4136308E2,3.8114966E2,6.769036E0,1.9227716E1,8.2734055E1,5.862902E1,3.0472592E2,7.642374E1,5.7431684E0,1.0258677E0,4.2030373E0,1.502468E1,3.2611343E1,5.0122715E1,8.452515E0,5.0176506E1,2.4972084E2,5.5005085E1,2.0188177E1,5.623556E1,1.5500599E0,4.1931086E0,1.9219344E0,2.2811027E0,2.6070108E1,6.541234E0,4.044316E1,9.679552E0,3.3565967E0,5.0959177E0,1.9182318E1,3.0994186E1,1.0968121E2,1.4003963E2,4.9017418E1,5.987667E0,3.1620264E0,1.702615E1,1.3874404E1,4.2361156E1],"tree_param":{"num_deleted":"0","num_feature":"20","num_nodes":"47","size_leaf_vector":"1"}},{"base_weights":[-1.0530829E-8,1.2535316E-1,-5.172533E-1,-5.5799462E-2,1.7318164E-1,-5.793476E-2,-2.4045609E-1,2.5018406E-1,-1.1746341E-1,2.323218E-1,-4.1286013E-1,2.842882E-1,-4.2820165E-1,-1.3714177E-2,-5.9210937E-2,3.6922413E-1,-3.344982E-2,4.9655534E-2,-5.368761E-2,5.244151E-1,2.1583311E-1,8.370498E-2,-5.5254114E-1,-1.2246405E-1,4.02135E-1,7.6192147E-3,4.6247315E-2,-3.8269293E-2,4.1786388E-2,6.1802566E-2,3.5949459E-3,2.7767235E-2,-1.2352613E-2,-4.1864082E-2,4.7190517E-2,-6.173954E-2,1.3752899E-2,3.301393E-2,-2.0567767E-2,1.3532628E-3,4.4326704E-2],"categories":[],"categories_nodes":[],"categories_segments":[],"categories_sizes":[],"default_left":[0,0,1,0,0,0,1,0,0,0,0,0,0,0,0,0,0,1,0,1,0,0,1,0,0,0,0,0,0,0,0,0,0,0,0,0,0,0,0,0,0],"id":17,"left_children":[1,3,5,-1,7,-1,9,11,13,15,17,19,21,23,-1,25,-1,27,-1,29,31,33,35,37,39,-1,-1,-1,-1,-1,-1,-1,-1,-1,-1,-1,-1,-1,-1,-1,-1],"loss_changes":[4.4360073E1,1.8095303E1,2.1545067E0,0E0,1.1565047E1,0E0,2.2284088E0,9.556488E0,5.341606E0,7.15667E-1,1.146982E0,6.2791996E0,1.3140867E0,4.1272287E0,0E0,1.4570433E-1,0E0,9.6306574E-1,0E0,3.8904724E0,6.4205008E0,1.1260256E0,8.080306E-1,2.7889347E0,2.9652333E-1,0E0,0E0,0E0,0E0,0E0,0E0,0E0,0E0,0E0,0E0,0E0,0E0,0E0,0E0,0E0,0E0],"parents":[2147483647,0,0,1,1,2,2,4,4,6,6,7,7,8,8,9,9,10,10,11,11,12,12,13,13,15,15,17,17,19,19,20,20,21,21,22,22,23,23,24,24],"right_children":[2,4,6,-1,8,-1,10,12,14,16,18,20,22,24,-1,26,-1,28,-1,30,32,34,36,38,40,-1,-1,-1,-1,-1,-1,-1,-1,-1,-1,-1,-1,-1,-1,-1,-1],"split_conditions":[1.5E0,1E0,-4E0,-5.5799462E-2,3E0,-5.793476E-2,-7.8E1,7.8E2,-1E0,1.29E3,7.85E2,1E0,-4.2E1,2.5E1,-5.9210937E-2,1E0,-3.344982E-2,2E0,-5.368761E-2,3.281E3,2.3E1,-4.5E1,7E1,-6.5E1,2.354E3,7.6192147E-3,4.6247315E-2,-3.8269293E-2,4.1786388E-2,6.1802566E-2,3.5949459E-3,2.7767235E-2,-1.2352613E-2,-4.1864082E-2,4.7190517E-2,-6.173954E-2,1.3752899E-2,3.301393E-2,-2.0567767E-2,1.3532628E-3,4.4326704E-2],"split_indices":[9,18,6,0,12,0,5,8,5,17,16,19,5,6,0,6,0,1,0,16,15,5,6,5,16,0,0,0,0,0,0,0,0,0,0,0,0,0,0,0,0],"split_type":[0,0,0,0,0,0,0,0,0,0,0,0,0,0,0,0,0,0,0,0,0,0,0,0,0,0,0,0,0,0,0,0,0,0,0,0,0,0,0,0,0],"sum_hessian":[6.821538E2,5.49696E2,1.3245781E2,3.525958E1,5.144364E2,1.0729508E2,2.5162725E1,4.0679965E2,1.0763679E2,6.6310563E0,1.853167E1,3.8788083E2,1.8918802E1,8.917385E1,1.8462936E1,5.621835E0,1.0092208E0,4.0451064E0,1.4486563E1,8.4568985E1,3.0331186E2,3.761106E0,1.5157697E1,7.1247284E1,1.7926565E1,1.7957697E0,3.8260655E0,1.8424144E0,2.2026918E0,7.074586E1,1.3823126E1,2.5671426E2,4.65976E1,1.6053313E0,2.1557746E0,1.3951792E1,1.205904E0,1.060403E1,6.0643253E1,1.8430458E0,1.608352E1],"tree_param":{"num_deleted":"0","num_feature":"20","num_nodes":"41","size_leaf_vector":"1"}},{"base_weights":[2.300554E-8,1.2148957E-1,-5.1209134E-1,-5.516221E-2,1.6772366E-1,-5.730791E-2,-2.3978499E-1,2.2432551E-1,-2.0444885E-1,2.2197293E-1,-4.085841E-1,3.1013188E-1,8.810404E-3,-4.270419E-2,-5.9902478E-2,3.994685E-2,-3.40166E-2,4.810141E-2,-5.296718E-2,3.585886E-1,4.1940648E-2,5.891501E-1,-5.194118E-2,-5.617244E-2,5.3312924E-2,-4.3163236E-2,3.470807E-2,-3.734378E-2,4.0888455E-2,2.1922437E-2,4.6542075E-2,-3.6991827E-2,2.945563E-2,1.4233797E-2,6.4890556E-2,-3.5229288E-2,7.892605E-3,-2.3283256E-2,2.6250241E-2],"categories":[],"categories_nodes":[],"categories_segments":[],"categories_sizes":[],"default_left":[0,0,1,0,0,0,1,0,0,1,0,0,0,1,0,0,1,1,0,0,0,0,0,0,0,0,0,0,0,0,0,0,0,0,0,0,0,0,0],"id":18,"left_children":[1,3,5,-1,7,-1,9,11,13,15,17,19,21,23,-1,-1,25,27,-1,29,31,33,35,-1,37,-1,-1,-1,-1,-1,-1,-1,-1,-1,-1,-1,-1,-1,-1],"loss_changes":[4.1791924E1,1.6989176E1,2.001751E0,0E0,1.0764285E1,0E0,2.0618577E0,8.173199E0,4.2944617E0,3.506356E-1,1.069051E0,4.094055E0,4.5057263E0,2.4761841E0,0E0,0E0,7.497005E-1,8.936115E-1,0E0,3.8831978E0,5.2610188E0,2.309475E-1,4.5802894E0,0E0,2.595352E0,0E0,0E0,0E0,0E0,0E0,0E0,0E0,0E0,0E0,0E0,0E0,0E0,0E0,0E0],"parents":[2147483647,0,0,1,1,2,2,4,4,6,6,7,7,8,8,9,9,10,10,11,11,12,12,13,13,16,16,17,17,19,19,20,20,21,21,22,22,24,24],"right_children":[2,4,6,-1,8,-1,10,12,14,16,18,20,22,24,-1,-1,26,28,-1,30,32,34,36,-1,38,-1,-1,-1,-1,-1,-1,-1,-1,-1,-1,-1,-1,-1,-1],"split_conditions":[1.5E0,1E0,-4E0,-5.516221E-2,4E0,-5.730791E-2,-7.8E1,1.67E2,-7E0,-2E0,7.85E2,4E0,1E0,-1E0,-5.9902478E-2,3.994685E-2,1E0,2E0,-5.296718E-2,0E0,-6.9E1,5.07E2,0E0,-5.617244E-2,-1E0,-4.3163236E-2,3.470807E-2,-3.734378E-2,4.0888455E-2,2.1922437E-2,4.6542075E-2,-3.6991827E-2,2.945563E-2,1.4233797E-2,6.4890556E-2,-3.5229288E-2,7.892605E-3,-2.3283256E-2,2.6250241E-2],"split_indices":[9,18,6,0,12,0,5,8,5,1,16,5,15,4,0,0,2,1,0,3,8,7,3,0,6,0,0,0,0,0,0,0,0,0,0,0,0,0,0],"split_type":[0,0,0,0,0,0,0,0,0,0,0,0,0,0,0,0,0,0,0,0,0,0,0,0,0,0,0,0,0,0,0,0,0,0,0,0,0,0,0],"sum_hessian":[6.697475E2,5.419395E2,1.2780802E2,3.412919E1,5.078103E2,1.03518654E2,2.428937E1,4.4111984E2,6.669046E1,6.417897E0,1.7871471E1,3.151895E2,1.2593032E2,4.80869E1,1.8603561E1,3.4590242E0,2.958873E0,3.871764E0,1.3999708E1,2.666705E2,4.8519012E1,1.1109288E1,1.1482104E2,6.7499285E0,4.1336967E1,1.3831583E0,1.5757147E0,1.7693633E0,2.1024008E0,1.1704087E2,1.4962964E2,1.8269112E1,3.0249903E1,1.709415E0,9.399874E0,3.433264E1,8.0488396E1,1.7409666E1,2.3927303E1],"tree_param":{"num_deleted":"0","num_feature":"20","num_nodes":"39","size_leaf_vector":"1"}},{"base_weights":[2.9295967E-8,1.17875576E-1,-5.071174E-1,-5.4597687E-2,1.6232935E-1,-5.6733247E-2,-2.3734444E-1,2.712275E-1,-1.956821E-2,2.1863236E-1,-4.031442E-1,3.55629E-1,-1.9730799E-2,3.7116396E-1,-6.150741E-2,3.6081943E-1,-3.2586213E-2,4.9087156E-2,-5.234235E-2,4.227697E-1,5.9311908E-2,2.2428238E-1,-5.44911E-1,-5.4498403E-3,5.1678922E-2,-7.908047E-3,-5.536724E-1,8.157848E-3,4.4491988E-2,-3.649909E-2,4.0225375E-2,4.5263678E-2,1.3620371E-2,4.5560446E-2,-1.2969014E-2,-1.5003869E-2,3.5737395E-2,-7.8019165E-3,-7.052957E-2,4.309685E-2,-4.8881683E-2,4.633638E-2,-5.4371925E-3,-6.1042693E-2,1.3250122E-2],"categories":[],"categories_nodes":[],"categories_segments":[],"categories_sizes":[],"default_left":[0,0,1,0,0,0,1,0,0,0,0,0,0,0,0,0,0,1,0,0,0,0,0,0,0,0,1,0,0,0,0,0,0,0,0,0,0,0,0,0,0,0,0,0,0],"id":19,"left_children":[1,3,5,-1,7,-1,9,11,13,15,17,19,21,23,25,27,-1,29,-1,31,33,35,37,39,-1,41,43,-1,-1,-1,-1,-1,-1,-1,-1,-1,-1,-1,-1,-1,-1,-1,-1,-1,-1],"loss_changes":[3.9433617E1,1.5884653E1,1.8864403E0,0E0,9.957814E0,0E0,1.9345081E0,7.7266674E0,3.1214218E0,6.719651E-1,1.0190272E0,4.8237476E0,9.301806E0,1.0158303E0,4.5228534E0,1.0819304E-1,0E0,8.415835E-1,0E0,1.6375961E0,3.5183673E0,2.5254288E0,1.6684122E0,1.505914E0,0E0,3.4362779E0,7.3669195E-1,0E0,0E0,0E0,0E0,0E0,0E0,0E0,0E0,0E0,0E0,0E0,0E0,0E0,0E0,0E0,0E0,0E0,0E0],"parents":[2147483647,0,0,1,1,2,2,4,4,6,6,7,7,8,8,9,9,10,10,11,11,12,12,13,13,14,14,15,15,17,17,19,19,20,20,21,21,22,22,23,23,25,25,26,26],"right_children":[2,4,6,-1,8,-1,10,12,14,16,18,20,22,24,26,28,-1,30,-1,32,34,36,38,40,-1,42,44,-1,-1,-1,-1,-1,-1,-1,-1,-1,-1,-1,-1,-1,-1,-1,-1,-1,-1],"split_conditions":[1.5E0,1E0,-4E0,-5.4597687E-2,2E0,-5.6733247E-2,-7.8E1,1.7E1,-6.5E1,1.29E3,7.85E2,3.92E2,1.01E2,5.17E2,8.83E2,1E0,-3.2586213E-2,2E0,-5.234235E-2,1E0,1E0,0E0,1E0,1E0,5.1678922E-2,1E0,3.8E1,8.157848E-3,4.4491988E-2,-3.649909E-2,4.0225375E-2,4.5263678E-2,1.3620371E-2,4.5560446E-2,-1.2969014E-2,-1.5003869E-2,3.5737395E-2,-7.8019165E-3,-7.052957E-2,4.309685E-2,-4.8881683E-2,4.633638E-2,-5.4371925E-3,-6.1042693E-2,1.3250122E-2],"split_indices":[9,18,6,0,12,0,5,15,5,17,16,17,8,17,17,6,0,1,0,4,19,3,19,19,0,15,6,0,0,0,0,0,0,0,0,0,0,0,0,0,0,0,0,0,0],"split_type":[0,0,0,0,0,0,0,0,0,0,0,0,0,0,0,0,0,0,0,0,0,0,0,0,0,0,0,0,0,0,0,0,0,0,0,0,0,0,0,0,0,0,0,0,0],"sum_hessian":[6.576815E2,5.342636E2,1.23417915E2,3.2822674E1,5.0144095E2,9.999533E1,2.3422579E1,3.1335245E2,1.880885E2,6.1607747E0,1.7261803E1,2.4272133E2,7.063113E1,1.7470665E1,1.7061784E2,5.1525817E0,1.0081929E0,3.7508996E0,1.3510903E1,1.9753607E2,4.5185246E1,4.8615818E1,2.2015305E1,5.140071E0,1.2330595E1,1.5477779E2,1.5840051E1,1.6486244E0,3.5039573E0,1.7111467E0,2.039753E0,1.7836647E2,1.91696E1,1.4135619E1,3.1049627E1,1.2718265E1,3.5897556E1,6.009027E0,1.6006279E1,2.758186E0,2.3818848E0,1.3085202E1,1.4169258E2,1.4731938E1,1.1081122E0],"tree_param":{"num_deleted":"0","num_feature":"20","num_nodes":"45","size_leaf_vector":"1"}},{"base_weights":[-2.0186897E-8,1.1607627E-1,-5.036314E-1,-5.412521E-2,1.5939768E-1,-5.624428E-2,-2.3728424E-1,-7.14908E-2,2.4685235E-1,2.0546803E-1,-3.988647E-1,6.318494E-2,-2.6141888E-1,3.7885568E-1,1.1404055E-1,3.7808362E-2,-3.7933223E-2,1.5707396E-2,-4.8834917E-1,5.413297E-2,-7.1564764E-3,3.737765E-1,-3.7103328E-1,6.249196E-1,2.63381E-1,-1.7738919E-1,1.8661028E-1,-4.1411012E-2,3.322674E-2,-2.3483753E-3,-5.198098E-2,1.498204E-2,-3.308827E-2,1.6315473E-3,4.5518067E-2,-9.176801E-3,-5.413134E-2,4.8166808E-2,7.077264E-2,3.790249E-2,-6.8564275E-3,3.9827283E-3,-5.104589E-2,-8.81216E-3,2.474781E-2],"categories":[],"categories_nodes":[],"categories_segments":[],"categories_sizes":[],"default_left":[0,0,1,0,1,0,1,0,0,1,0,1,0,0,1,0,1,0,0,0,0,0,0,0,1,1,0,0,0,0,0,0,0,0,0,0,0,0,0,0,0,0,0,0,0],"id":20,"left_children":[1,3,5,-1,7,-1,9,11,13,15,17,19,21,23,25,-1,27,-1,29,-1,31,33,35,37,39,41,43,-1,-1,-1,-1,-1,-1,-1,-1,-1,-1,-1,-1,-1,-1,-1,-1,-1,-1],"loss_changes":[3.788659E1,1.5084505E1,1.768034E0,0E0,1.001075E1,0E0,1.776431E0,3.5139632E0,6.253519E0,3.0814552E-1,9.568882E-1,2.721742E0,4.102109E0,4.941427E0,3.8497438E0,0E0,6.682245E-1,0E0,2.1423388E-1,0E0,3.6795805E0,2.5084662E-1,2.2827353E0,3.3130836E-1,4.787282E0,2.6604233E0,2.446096E0,0E0,0E0,0E0,0E0,0E0,0E0,0E0,0E0,0E0,0E0,0E0,0E0,0E0,0E0,0E0,0E0,0E0,0E0],"parents":[2147483647,0,0,1,1,2,2,4,4,6,6,7,7,8,8,9,9,10,10,11,11,12,12,13,13,14,14,16,16,18,18,20,20,21,21,22,22,23,23,24,24,25,25,26,26],"right_children":[2,4,6,-1,8,-1,10,12,14,16,18,20,22,24,26,-1,28,-1,30,-1,32,34,36,38,40,42,44,-1,-1,-1,-1,-1,-1,-1,-1,-1,-1,-1,-1,-1,-1,-1,-1,-1,-1],"split_conditions":[1.5E0,1E0,-4E0,-5.412521E-2,-1E0,-5.624428E-2,-7.8E1,2.2E1,1.1E1,-2E0,-3E0,-1.7E1,-7.9E1,2E0,-1.6E1,3.7808362E-2,1E0,1.5707396E-2,2.7E2,5.413297E-2,1.1E1,2.34E2,1.1E1,1E0,9.09E2,7.97E2,0E0,-4.1411012E-2,3.322674E-2,-2.3483753E-3,-5.198098E-2,1.498204E-2,-3.308827E-2,1.6315473E-3,4.5518067E-2,-9.176801E-3,-5.413134E-2,4.8166808E-2,7.077264E-2,3.790249E-2,-6.8564275E-3,3.9827283E-3,-5.104589E-2,-8.81216E-3,2.474781E-2],"split_indices":[9,18,6,0,3,0,5,14,8,1,6,6,5,15,6,0,2,0,16,0,8,17,15,12,16,16,3,0,0,0,0,0,0,0,0,0,0,0,0,0,0,0,0,0,0],"split_type":[0,0,0,0,0,0,0,0,0,0,0,0,0,0,0,0,0,0,0,0,0,0,0,0,0,0,0,0,0,0,0,0,0,0,0,0,0,0,0,0,0,0,0,0,0],"sum_hessian":[6.460809E2,5.2569006E2,1.2039082E2,3.1792921E1,4.9389716E2,9.770513E1,2.2685694E1,1.3573271E2,3.5816443E2,5.992852E0,1.6692842E1,7.9808655E1,5.5924053E1,1.7869984E2,1.7946458E2,3.1825285E0,2.810324E0,2.2096524E0,1.448319E1,9.376473E0,7.043218E1,7.8757296E0,4.8048325E1,5.566725E1,1.2303259E2,3.5491474E1,1.4397311E2,1.3350806E0,1.4752433E0,1.0287474E0,1.3454442E1,4.779385E1,2.2638336E1,1.6835166E0,6.192213E0,1.87828E1,2.9265522E1,2.2888353E1,3.27789E1,9.11394E1,3.1893194E1,2.2014685E1,1.34767885E1,2.6031227E1,1.1794189E2],"tree_param":{"num_deleted":"0","num_feature":"20","num_nodes":"45","size_leaf_vector":"1"}},{"base_weights":[-1.1346614E-8,1.135711E-1,-4.9955586E-1,-5.364588E-2,1.5583569E-1,-5.5773135E-2,-2.3603657E-1,2.1172185E-1,-2.0786867E-1,1.9995862E-1,-3.9255565E-1,2.9357126E-1,7.560206E-3,-5.6092575E-2,-5.809033E-2,3.6469508E-2,-3.3720538E-2,4.263371E-2,-5.125425E-2,3.6867222E-1,9.1120414E-2,5.534975E-1,-4.7804706E-2,-5.37284E-2,3.2710463E-2,-3.9963152E-2,3.252991E-2,-3.570501E-2,3.9223466E-2,1.0847021E-3,4.2198747E-2,3.96727E-2,-3.764961E-3,1.4819055E-2,6.0662534E-2,-3.2326654E-2,7.0803254E-3,-2.285349E-2,2.2578824E-2],"categories":[],"categories_nodes":[],"categories_segments":[],"categories_sizes":[],"default_left":[0,0,1,0,0,0,1,0,0,1,0,1,0,1,0,0,1,1,0,1,0,0,0,0,0,0,0,0,0,0,0,0,0,0,0,0,0,0,0],"id":21,"left_children":[1,3,5,-1,7,-1,9,11,13,15,17,19,21,23,-1,-1,25,27,-1,29,31,33,35,-1,37,-1,-1,-1,-1,-1,-1,-1,-1,-1,-1,-1,-1,-1,-1],"loss_changes":[3.611215E1,1.4331306E1,1.675827E0,0E0,9.957371E0,0E0,1.65181E0,7.070545E0,3.6738782E0,2.722491E-1,9.253261E-1,4.559635E0,3.7185683E0,2.0532532E0,0E0,0E0,6.170504E-1,7.9155856E-1,0E0,4.1930466E0,3.2840662E0,1.5399933E-1,3.676413E0,0E0,2.1277237E0,0E0,0E0,0E0,0E0,0E0,0E0,0E0,0E0,0E0,0E0,0E0,0E0,0E0,0E0],"parents":[2147483647,0,0,1,1,2,2,4,4,6,6,7,7,8,8,9,9,10,10,11,11,12,12,13,13,16,16,17,17,19,19,20,20,21,21,22,22,24,24],"right_children":[2,4,6,-1,8,-1,10,12,14,16,18,20,22,24,-1,-1,26,28,-1,30,32,34,36,-1,38,-1,-1,-1,-1,-1,-1,-1,-1,-1,-1,-1,-1,-1,-1],"split_conditions":[1.5E0,1E0,-4E0,-5.364588E-2,4E0,-5.5773135E-2,-7.8E1,1.67E2,-7E0,-2E0,7.85E2,1.047E3,1E0,-1E0,-5.809033E-2,3.6469508E-2,1E0,2E0,-5.125425E-2,-6.4E1,2E0,5.07E2,0E0,-5.37284E-2,-1E0,-3.9963152E-2,3.252991E-2,-3.570501E-2,3.9223466E-2,1.0847021E-3,4.2198747E-2,3.96727E-2,-3.764961E-3,1.4819055E-2,6.0662534E-2,-3.2326654E-2,7.0803254E-3,-2.285349E-2,2.2578824E-2],"split_indices":[9,18,6,0,12,0,5,8,5,1,16,16,15,4,0,0,2,1,0,5,15,7,3,0,6,0,0,0,0,0,0,0,0,0,0,0,0,0,0],"split_type":[0,0,0,0,0,0,0,0,0,0,0,0,0,0,0,0,0,0,0,0,0,0,0,0,0,0,0,0,0,0,0,0,0,0,0,0,0,0,0],"sum_hessian":[6.345044E2,5.17603E2,1.1690138E2,3.0885822E1,4.8671722E2,9.484629E1,2.2055086E1,4.2225253E2,6.44647E1,5.752777E0,1.6302309E1,3.011015E2,1.2115102E2,4.6639084E1,1.7825613E1,3.0452828E0,2.707494E0,3.6626484E0,1.2639661E1,2.190295E2,8.2072E1,1.0326559E1,1.1082446E2,6.479381E0,4.0159706E1,1.2848563E0,1.4226378E0,1.6989751E0,1.9636734E0,2.8559042E1,1.9047046E2,2.3713194E1,5.8358807E1,1.6358829E0,8.690677E0,3.2836838E1,7.7987625E1,1.6988985E1,2.317072E1],"tree_param":{"num_deleted":"0","num_feature":"20","num_nodes":"39","size_leaf_vector":"1"}},{"base_weights":[1.5500495E-8,1.1022397E-1,-4.959846E-1,-5.317799E-2,1.5080889E-1,-5.22653E-1,2.3019513E-2,2.6052526E-1,-3.2354757E-2,-5.4108566E-1,1.591564E-8,-3.7084863E-2,2.889061E-2,3.2086024E-1,-1.2857229E-1,5.846613E-2,-2.0016125E-1,4.1642617E-3,-5.5057436E-1,-3.479956E-2,3.479956E-2,-6.931481E-2,3.5793394E-1,3.1338014E-2,-5.779932E-2,1.9721888E-1,-7.914528E-2,-5.525376E-2,-5.7079203E-2,-7.330585E-3,-5.5525225E-2,2.4738647E-2,-5.3367823E-2,-3.8054854E-2,3.7243333E-2,3.5476934E-2,-1.2414048E-2,3.011779E-2,-2.406258E-2,-4.7698792E-2,1.449162E-2,-2.6073003E-2,1.3784418E-2],"categories":[],"categories_nodes":[],"categories_segments":[],"categories_sizes":[],"default_left":[0,0,1,0,0,0,0,0,0,0,1,0,0,1,0,1,0,0,0,0,0,0,1,0,0,1,1,1,0,0,0,0,0,0,0,0,0,0,0,0,0,0,0],"id":22,"left_children":[1,3,5,-1,7,9,11,13,15,17,19,-1,-1,21,23,25,27,-1,29,-1,-1,31,33,35,-1,37,39,41,-1,-1,-1,-1,-1,-1,-1,-1,-1,-1,-1,-1,-1,-1,-1],"loss_changes":[3.4147633E1,1.3395923E1,1.5839767E0,0E0,9.683518E0,1.0410709E0,7.88722E-1,7.112257E0,2.7739158E0,6.0009E-1,6.880102E-1,0E0,0E0,3.8009567E0,2.9753668E0,2.275783E0,3.398872E0,0E0,1.8876457E-1,0E0,0E0,3.5865514E0,2.6961174E0,1.6179405E0,0E0,2.7683833E0,5.4303975E0,1.9018081E0,0E0,0E0,0E0,0E0,0E0,0E0,0E0,0E0,0E0,0E0,0E0,0E0,0E0,0E0,0E0],"parents":[2147483647,0,0,1,1,2,2,4,4,5,5,6,6,7,7,8,8,9,9,10,10,13,13,14,14,15,15,16,16,18,18,21,21,22,22,23,23,25,25,26,26,27,27],"right_children":[2,4,6,-1,8,10,12,14,16,18,20,-1,-1,22,24,26,28,-1,30,-1,-1,32,34,36,-1,38,40,42,-1,-1,-1,-1,-1,-1,-1,-1,-1,-1,-1,-1,-1,-1,-1],"split_conditions":[1.5E0,1E0,0E0,-5.317799E-2,2E0,2.00001E0,2E0,3.47E2,4E0,-2E0,0E0,-3.7084863E-2,2.889061E-2,-3.3E1,1.7E1,-1.475E3,-7E0,4.1642617E-3,5.4E1,-3.479956E-2,3.479956E-2,5E-1,-1E0,1E0,-5.779932E-2,3E0,-1E0,0E0,-5.7079203E-2,-7.330585E-3,-5.5525225E-2,2.4738647E-2,-5.3367823E-2,-3.8054854E-2,3.7243333E-2,3.5476934E-2,-1.2414048E-2,3.011779E-2,-2.406258E-2,-4.7698792E-2,1.449162E-2,-2.6073003E-2,1.3784418E-2],"split_indices":[9,18,2,0,12,18,0,8,12,1,6,0,0,6,15,7,5,0,16,0,0,9,4,19,0,6,6,4,0,0,0,0,0,0,0,0,0,0,0,0,0,0,0],"split_type":[0,0,0,0,0,0,0,0,0,0,0,0,0,0,0,0,0,0,0,0,0,0,0,0,0,0,0,0,0,0,0,0,0,0,0,0,0,0,0,0,0,0,0],"sum_hessian":[6.2262067E2,5.1004895E2,1.1257174E2,2.9606554E1,4.804424E2,1.0706339E2,5.5083456E0,3.001988E2,1.8024362E2,1.03382095E2,3.681295E0,2.060816E0,3.4475296E0,2.600498E2,4.014896E1,1.1737114E2,6.2872486E1,1.6021297E0,1.0177997E2,1.8406473E0,1.8406476E0,2.2489872E1,2.3755994E2,3.0298573E1,9.850389E0,5.822752E1,5.9143616E1,4.6026386E1,1.68461E1,1.1497135E0,1.0063026E2,1.3648615E1,8.841257E0,4.088311E0,2.3347163E2,9.420324E0,2.0878248E1,4.7307316E1,1.0920208E1,2.0901743E1,3.8241875E1,2.2128798E1,2.3897587E1],"tree_param":{"num_deleted":"0","num_feature":"20","num_nodes":"43","size_leaf_vector":"1"}},{"base_weights":[-6.973943E-8,1.0783778E-1,-4.921527E-1,-5.2759092E-2,1.472093E-1,-5.493607E-2,-2.3057653E-1,2.5400522E-1,-3.1249762E-2,1.9585115E-1,-3.8207966E-1,2.866089E-1,-4.0307233E-1,3.460292E-1,-7.0079125E-2,3.461803E-2,-2.3281867E-2,4.935634E-2,-5.026414E-2,5.154241E-1,2.1752387E-1,2.231185E-2,-5.8861025E-2,-1.4386308E-2,4.9058294E-1,-2.0033391E-2,-5.3668875E-1,-3.689471E-2,3.112626E-2,-3.414823E-2,3.829398E-2,6.0775764E-2,7.191268E-3,2.792799E-2,-2.3777192E-2,3.805692E-2,-4.520933E-2,1.5371114E-2,5.1069237E-2,7.132201E-3,-2.082037E-2,-5.838722E-2,5.8967243E-3],"categories":[],"categories_nodes":[],"categories_segments":[],"categories_sizes":[],"default_left":[0,0,1,0,0,0,1,0,0,1,0,0,0,0,0,0,1,1,0,1,0,0,0,0,0,0,1,0,0,0,0,0,0,0,0,0,0,0,0,0,0,0,0],"id":23,"left_children":[1,3,5,-1,7,-1,9,11,13,15,17,19,21,23,25,-1,27,29,-1,31,33,-1,-1,35,37,39,41,-1,-1,-1,-1,-1,-1,-1,-1,-1,-1,-1,-1,-1,-1,-1,-1],"loss_changes":[3.2520046E1,1.2651987E1,1.521349E0,0E0,9.043129E0,0E0,1.4629978E0,6.471657E0,2.6373837E0,2.1539277E-1,8.670862E-1,4.365467E0,1.8091595E0,8.830445E-1,3.785396E0,0E0,5.193349E-1,7.105958E-1,0E0,2.6163921E0,6.2323837E0,0E0,0E0,1.1720744E0,2.9900074E-3,2.5565383E0,4.7590113E-1,0E0,0E0,0E0,0E0,0E0,0E0,0E0,0E0,0E0,0E0,0E0,0E0,0E0,0E0,0E0,0E0],"parents":[2147483647,0,0,1,1,2,2,4,4,6,6,7,7,8,8,9,9,10,10,11,11,12,12,13,13,14,14,16,16,17,17,19,19,20,20,23,23,24,24,25,25,26,26],"right_children":[2,4,6,-1,8,-1,10,12,14,16,18,20,22,24,26,-1,28,30,-1,32,34,-1,-1,36,38,40,42,-1,-1,-1,-1,-1,-1,-1,-1,-1,-1,-1,-1,-1,-1,-1,-1],"split_conditions":[1.5E0,1E0,-4E0,-5.2759092E-2,2E0,-5.493607E-2,-7.8E1,7.65E2,-6.5E1,-2E0,7.85E2,1E0,-4.2E1,5.17E2,8.83E2,3.461803E-2,1E0,2E0,-5.026414E-2,3.736E3,2.3E1,2.231185E-2,-5.8861025E-2,1E0,1.454E3,4E0,3.4E1,-3.689471E-2,3.112626E-2,-3.414823E-2,3.829398E-2,6.0775764E-2,7.191268E-3,2.792799E-2,-2.3777192E-2,3.805692E-2,-4.520933E-2,1.5371114E-2,5.1069237E-2,7.132201E-3,-2.082037E-2,-5.838722E-2,5.8967243E-3],"split_indices":[9,18,6,0,12,0,5,8,5,1,16,19,5,17,17,0,2,1,0,16,15,0,0,19,16,12,6,0,0,0,0,0,0,0,0,0,0,0,0,0,0,0,0],"split_type":[0,0,0,0,0,0,0,0,0,0,0,0,0,0,0,0,0,0,0,0,0,0,0,0,0,0,0,0,0,0,0,0,0,0,0,0,0,0,0,0,0,0,0],"sum_hessian":[6.107455E2,5.0161514E2,1.0913033E2,2.8543457E1,4.730717E2,8.864339E1,2.0486946E1,2.9569467E2,1.7737701E2,5.2938666E0,1.5193079E1,2.822533E2,1.3441372E1,1.5813758E1,1.6156325E2,2.795993E0,2.4978738E0,3.4473126E0,1.1745767E1,6.395812E1,2.1829517E2,3.0260153E0,1.0415357E1,4.7846584E0,1.1029099E1,1.4685536E2,1.4707887E1,1.1779416E0,1.3199322E0,1.5765222E0,1.8707905E0,5.263073E1,1.1327391E1,1.925627E2,2.573248E1,2.5837796E0,2.200879E0,1.1082081E0,9.920891E0,9.9277695E1,4.757767E1,1.3646681E1,1.0612062E0],"tree_param":{"num_deleted":"0","num_feature":"20","num_nodes":"43","size_leaf_vector":"1"}},{"base_weights":[1.7822074E-8,1.0490215E-1,-4.8918375E-1,-5.2375533E-2,1.429878E-1,-5.158509E-1,2.9757783E-2,2.115985E-1,-1.1583523E-1,-5.3332996E-1,4.4952905E-8,-3.5199847E-2,2.7359095E-1,2.6531008E-1,-1.645832E-1,-2.1530133E-2,-5.5469137E-2,2.8034379E-3,-5.4257804E-1,-3.313499E-2,3.3134993E-2,3.4599397E-2,1.2101374E-2,3.7636605E-1,1.3635013E-1,-3.7918755E-1,2.6450539E-2,-9.574322E-2,4.5982245E-1,-8.080346E-3,-5.4717045E-2,-2.7977204E-2,3.869169E-2,2.058422E-2,-1.9784244E-2,-4.638205E-2,3.4608588E-2,-4.5290988E-2,2.5196357E-2,-1.7220935E-2,3.1317975E-2,5.2197274E-2,1.4026785E-2],"categories":[],"categories_nodes":[],"categories_segments":[],"categories_sizes":[],"default_left":[0,0,1,0,0,0,0,0,0,0,1,0,0,0,0,0,0,0,0,0,0,0,0,0,1,1,0,1,1,0,0,0,0,0,0,0,0,0,0,0,0,0,0],"id":24,"left_children":[1,3,5,-1,7,9,11,13,15,17,19,-1,21,23,25,27,-1,-1,29,-1,-1,-1,-1,31,33,35,37,39,41,-1,-1,-1,-1,-1,-1,-1,-1,-1,-1,-1,-1,-1,-1],"loss_changes":[3.0836386E1,1.1921808E1,1.4837265E0,0E0,8.323226E0,9.1044617E-1,6.6705513E-1,7.514635E0,4.067479E0,5.222511E-1,5.829215E-1,0E0,5.680084E-3,4.588047E0,1.9292749E0,2.9795253E0,0E0,0E0,1.596489E-1,0E0,0E0,0E0,0E0,1.3092384E0,3.5580747E0,1.5178254E0,2.892583E0,2.3060777E0,1.482141E-1,0E0,0E0,0E0,0E0,0E0,0E0,0E0,0E0,0E0,0E0,0E0,0E0,0E0,0E0],"parents":[2147483647,0,0,1,1,2,2,4,4,5,5,6,6,7,7,8,8,9,9,10,10,12,12,13,13,14,14,15,15,18,18,23,23,24,24,25,25,26,26,27,27,28,28],"right_children":[2,4,6,-1,8,10,12,14,16,18,20,-1,22,24,26,28,-1,-1,30,-1,-1,-1,-1,32,34,36,38,40,42,-1,-1,-1,-1,-1,-1,-1,-1,-1,-1,-1,-1,-1,-1],"split_conditions":[1.5E0,1E0,0E0,-5.2375533E-2,3E0,2.00001E0,2E0,4.49E2,-1E0,-2E0,0E0,-3.5199847E-2,3.23E2,7E0,1E0,5.5E1,-5.5469137E-2,2.8034379E-3,5.4E1,-3.313499E-2,3.3134993E-2,3.4599397E-2,1.2101374E-2,-6.56E2,2.705E3,1.7424E5,4.967E3,3.267E4,6.2E1,-8.080346E-3,-5.4717045E-2,-2.7977204E-2,3.869169E-2,2.058422E-2,-1.9784244E-2,-4.638205E-2,3.4608588E-2,-4.5290988E-2,2.5196357E-2,-1.7220935E-2,3.1317975E-2,5.2197274E-2,1.4026785E-2],"split_indices":[9,18,2,0,12,18,0,8,5,1,6,0,8,15,3,15,0,0,16,0,0,0,0,8,16,7,16,16,15,0,0,0,0,0,0,0,0,0,0,0,0,0,0],"split_type":[0,0,0,0,0,0,0,0,0,0,0,0,0,0,0,0,0,0,0,0,0,0,0,0,0,0,0,0,0,0,0,0,0,0,0,0,0,0,0,0,0,0,0],"sum_hessian":[5.989068E2,4.9380026E2,1.05106544E2,2.74784E1,4.6632184E2,9.997502E1,5.1315207E0,3.6875266E2,9.75692E1,9.666573E1,3.3092897E0,1.8271883E0,3.3043325E0,3.22938E2,4.581466E1,8.117474E1,1.6394453E1,1.5337721E0,9.513196E1,1.6546446E0,1.654645E0,1.3812283E0,1.923104E0,1.7248299E2,1.50455E2,2.1112396E1,2.4702265E1,7.102541E1,1.0149329E1,1.1198933E0,9.401207E1,2.3258467E0,1.7015714E2,1.24872955E2,2.5582048E1,1.9229029E1,1.883368E0,7.5804887E0,1.7121775E1,6.0324055E1,1.0701364E1,7.9664874E0,2.1828423E0],"tree_param":{"num_deleted":"0","num_feature":"20","num_nodes":"43","size_leaf_vector":"1"}},{"base_weights":[-3.6100996E-8,1.0183568E-1,-4.855707E-1,-5.199295E-2,1.3854061E-1,-5.123265E-1,2.351525E-2,-6.2208576E-3,2.6431936E-1,-5.2955604E-1,8.957495E-9,-3.4784768E-2,2.6099965E-1,1.6703977E-1,-2.0512442E-1,-1.6478513E-1,3.1978106E-1,1.8164868E-3,-5.387552E-1,-3.242693E-2,3.2426935E-2,3.396694E-2,1.0855548E-2,2.1904343E-1,-4.468483E-1,2.523667E-2,-3.9506525E-1,3.1717733E-1,-4.0064475E-1,4.2128932E-1,1.1120195E-1,-8.423771E-3,-5.434969E-2,3.0089676E-2,-6.8030553E-3,-5.4567017E-2,1.8725868E-2,3.0751014E-2,-4.1196875E-2,2.9632837E-2,-4.8167672E-2,4.8714228E-2,-3.8911935E-2,-7.249904E-2,1.3384039E-3,5.00667E-2,1.5796594E-2,-3.4907587E-2,1.7794566E-2],"categories":[],"categories_nodes":[],"categories_segments":[],"categories_sizes":[],"default_left":[0,0,1,0,1,0,0,1,1,0,1,0,0,0,0,0,1,0,0,0,0,0,0,0,1,0,0,0,1,0,0,0,0,0,0,0,0,0,0,0,0,0,0,0,0,0,0,0,0],"id":25,"left_children":[1,3,5,-1,7,9,11,13,15,17,19,-1,21,23,25,27,29,-1,31,-1,-1,-1,-1,33,35,37,39,41,43,45,47,-1,-1,-1,-1,-1,-1,-1,-1,-1,-1,-1,-1,-1,-1,-1,-1,-1,-1],"loss_changes":[2.913452E1,1.1187296E1,1.4033642E0,0E0,8.389765E0,8.570156E-1,6.249234E-1,7.4490542E0,5.9197807E0,4.8305702E-1,5.424564E-1,0E0,1.4281064E-2,3.7865024E0,4.412385E0,3.4096398E0,4.5825424E0,0E0,1.5337944E-1,0E0,0E0,0E0,0E0,2.539216E0,6.8823516E-1,5.8541465E0,3.448594E0,1.3955748E0,2.6726842E0,2.9875774E0,2.3027241E0,0E0,0E0,0E0,0E0,0E0,0E0,0E0,0E0,0E0,0E0,0E0,0E0,0E0,0E0,0E0,0E0,0E0,0E0],"parents":[2147483647,0,0,1,1,2,2,4,4,5,5,6,6,7,7,8,8,9,9,10,10,12,12,13,13,14,14,15,15,16,16,18,18,23,23,24,24,25,25,26,26,27,27,28,28,29,29,30,30],"right_children":[2,4,6,-1,8,10,12,14,16,18,20,-1,22,24,26,28,30,-1,32,-1,-1,-1,-1,34,36,38,40,42,44,46,48,-1,-1,-1,-1,-1,-1,-1,-1,-1,-1,-1,-1,-1,-1,-1,-1,-1,-1],"split_conditions":[1.5E0,1E0,0E0,-5.199295E-2,0E0,2.00001E0,2E0,-5.75E2,-8.7E1,-2E0,0E0,-3.4784768E-2,3.23E2,4.1E2,7E0,1E0,9.35E2,1.8164868E-3,5.4E1,-3.242693E-2,3.2426935E-2,3.396694E-2,1.0855548E-2,3E0,2.1E1,-3.1E1,-7.9E1,2.92E2,7.22E2,1E0,-7E0,-8.423771E-3,-5.434969E-2,3.0089676E-2,-6.8030553E-3,-5.4567017E-2,1.8725868E-2,3.0751014E-2,-4.1196875E-2,2.9632837E-2,-4.8167672E-2,4.8714228E-2,-3.8911935E-2,-7.249904E-2,1.3384039E-3,5.00667E-2,1.5796594E-2,-3.4907587E-2,1.7794566E-2],"split_indices":[9,18,2,0,3,18,0,7,5,1,6,0,8,8,15,2,16,0,16,0,0,0,0,6,6,8,5,17,7,4,6,0,0,0,0,0,0,0,0,0,0,0,0,0,0,0,0,0,0],"split_type":[0,0,0,0,0,0,0,0,0,0,0,0,0,0,0,0,0,0,0,0,0,0,0,0,0,0,0,0,0,0,0,0,0,0,0,0,0,0,0,0,0,0,0,0,0,0,0,0,0],"sum_hessian":[5.871899E2,4.8604498E2,1.0114492E2,2.6359617E1,4.5968536E2,9.608848E1,5.056443E0,2.1415749E2,2.455279E2,9.292962E1,3.1588526E0,1.7910289E0,3.2654145E0,1.1454233E2,9.961516E1,2.7876633E1,2.1765126E2,1.5189047E0,9.141072E1,1.5794264E0,1.579426E0,1.3437881E0,1.9216263E0,1.0618995E2,8.352375E0,4.5409473E1,5.4205685E1,9.046328E0,1.8830305E1,1.4571635E2,7.1934906E1,1.1375334E0,9.0273186E1,8.2592285E1,2.3597668E1,7.346874E0,1.0055007E0,2.7774216E1,1.7635256E1,5.7648945E0,4.8440792E1,7.5417495E0,1.504578E0,1.0137575E1,8.692729E0,1.1127244E2,3.4443913E1,8.574357E0,6.336055E1],"tree_param":{"num_deleted":"0","num_feature":"20","num_nodes":"49","size_leaf_vector":"1"}},{"base_weights":[1.0775729E-9,9.9963136E-2,-4.8200324E-1,-5.1639374E-2,1.3577431E-1,1.4135188E-1,-5.026597E-1,2.4038103E-1,-3.6851976E-2,2.9729826E-2,-3.7242987E-3,-1.1206612E-1,-5.334707E-1,2.8587407E-1,-2.114074E-1,1.8601324E-2,-3.0170643E-1,3.2283135E-2,-4.515054E-2,-5.6122188E-3,-5.3847123E-2,3.553605E-1,3.9705597E-2,2.4833286E-1,-3.4901288E-1,-3.3366926E-2,4.4998077E-1,-5.0453175E-2,-5.3831477E-2,5.5760473E-2,3.0575648E-2,1.6224183E-2,-4.1513827E-2,-3.3346985E-2,4.3722596E-2,4.552154E-2,-4.247197E-2,1.1524318E-2,-1.7862279E-2,4.838263E-2,-1.398832E-3,1.5749693E-2,-5.2653622E-2],"categories":[],"categories_nodes":[],"categories_segments":[],"categories_sizes":[],"default_left":[0,0,0,0,0,0,0,0,0,0,0,1,0,0,0,0,0,0,0,0,0,0,0,0,0,0,1,1,0,0,0,0,0,0,0,0,0,0,0,0,0,0,0],"id":26,"left_children":[1,3,5,-1,7,9,11,13,15,-1,-1,17,19,21,23,25,27,-1,-1,-1,-1,29,31,33,35,37,39,41,-1,-1,-1,-1,-1,-1,-1,-1,-1,-1,-1,-1,-1,-1,-1],"loss_changes":[2.7824144E1,1.0626976E1,1.3482685E0,0E0,8.185658E0,1.2141994E-1,1.098299E0,5.858242E0,2.5277262E0,0E0,0E0,1.3712744E0,1.820488E-1,4.3769436E0,1.7556198E0,3.2193556E0,1.7436793E0,0E0,0E0,0E0,0E0,1.8366413E0,3.2796636E0,8.778893E-1,1.4548705E0,2.7944221E0,2.4918127E-1,1.6224204E0,0E0,0E0,0E0,0E0,0E0,0E0,0E0,0E0,0E0,0E0,0E0,0E0,0E0,0E0,0E0],"parents":[2147483647,0,0,1,1,2,2,4,4,5,5,6,6,7,7,8,8,11,11,12,12,13,13,14,14,15,15,16,16,21,21,22,22,23,23,24,24,25,25,26,26,27,27],"right_children":[2,4,6,-1,8,10,12,14,16,-1,-1,18,20,22,24,26,28,-1,-1,-1,-1,30,32,34,36,38,40,42,-1,-1,-1,-1,-1,-1,-1,-1,-1,-1,-1,-1,-1,-1,-1],"split_conditions":[1.5E0,1E0,-7.9E1,-5.1639374E-2,2E0,2.00001E0,5E0,4.88E2,1E0,2.9729826E-2,-3.7242987E-3,1E0,4.5E1,1.7E1,-4.2E1,5.5E1,3E0,3.2283135E-2,-4.515054E-2,-5.6122188E-3,-5.3847123E-2,1E0,1.01E2,1E0,3E0,-3.1E1,1.098E4,7.54E2,-5.3831477E-2,5.5760473E-2,3.0575648E-2,1.6224183E-2,-4.1513827E-2,-3.3346985E-2,4.3722596E-2,4.552154E-2,-4.247197E-2,1.1524318E-2,-1.7862279E-2,4.838263E-2,-1.398832E-3,1.5749693E-2,-5.2653622E-2],"split_indices":[9,18,5,0,12,2,15,8,5,0,0,13,16,15,5,15,12,0,0,0,0,19,8,3,16,8,16,7,0,0,0,0,0,0,0,0,0,0,0,0,0,0,0],"split_type":[0,0,0,0,0,0,0,0,0,0,0,0,0,0,0,0,0,0,0,0,0,0,0,0,0,0,0,0,0,0,0,0,0,0,0,0,0,0,0,0,0,0,0],"sum_hessian":[5.7547345E2,4.7728207E2,9.81914E1,2.5471119E1,4.5181094E2,2.9620404E0,9.5229355E1,2.8108734E2,1.707236E2,1.2264612E0,1.7355794E0,7.301747E0,8.7927605E1,2.5570613E2,2.5381205E1,1.4193587E2,2.8787731E1,3.2222514E0,4.0794954E0,1.0382684E0,8.6889336E1,1.9907056E2,5.663558E1,5.661488E0,1.9719715E1,1.2749876E2,1.4437116E1,1.455019E1,1.4237542E1,3.7191837E1,1.6187872E2,4.51227E1,1.151288E1,1.2000057E0,4.4614825E0,1.26533E0,1.8454386E1,6.3123863E1,6.437489E1,1.3415673E1,1.0214423E0,1.0592593E1,3.9575968E0],"tree_param":{"num_deleted":"0","num_feature":"20","num_nodes":"43","size_leaf_vector":"1"}},{"base_weights":[5.740677E-8,9.737947E-2,-4.7929555E-1,-5.1322635E-2,1.3199696E-1,-5.0628823E-1,2.2812083E-2,-8.132654E-3,2.5669453E-1,-5.225924E-1,4.4723283E-8,-3.374325E-2,2.511698E-1,1.4902972E-1,-1.948106E-1,3.5517946E-1,5.3796798E-2,1.2803384E-3,-5.319107E-1,-3.0796349E-2,3.0796358E-2,3.328273E-2,9.780893E-3,2.5657976E-1,-1.3771564E-1,2.2362702E-2,-3.7775874E-1,6.2343203E-2,4.1258124E-1,-3.77997E-1,1.6798389E-1,-9.568109E-3,-5.3673595E-2,3.0675411E-2,-3.162391E-2,1.8517643E-2,-3.62912E-2,2.6848024E-2,-3.6760923E-2,1.094759E-2,-5.029517E-2,-1.5077288E-2,4.741594E-2,5.40666E-2,2.3322428E-2,-6.0206044E-2,6.135849E-3,2.505656E-2,-9.236607E-3],"categories":[],"categories_nodes":[],"categories_segments":[],"categories_sizes":[],"default_left":[0,0,1,0,1,0,0,1,1,0,1,0,0,0,0,1,1,0,0,0,0,0,0,1,0,0,0,1,0,0,0,0,0,0,0,0,0,0,0,0,0,0,0,0,0,0,0,0,0],"id":27,"left_children":[1,3,5,-1,7,9,11,13,15,17,19,-1,21,23,25,27,29,-1,31,-1,-1,-1,-1,33,35,37,39,41,43,45,47,-1,-1,-1,-1,-1,-1,-1,-1,-1,-1,-1,-1,-1,-1,-1,-1,-1,-1],"loss_changes":[2.6422253E1,1.0013277E1,1.307169E0,0E0,7.7965384E0,7.492008E-1,5.646661E-1,6.219654E0,4.697919E0,4.4548988E-1,4.5823985E-1,0E0,1.9338876E-2,3.5857444E0,3.85761E0,2.6426258E0,3.9249537E0,0E0,1.3061142E-1,0E0,0E0,0E0,0E0,2.513321E0,2.3979044E0,4.4408264E0,3.265954E0,2.4582357E0,2.9188995E0,1.6796727E0,1.3697026E0,0E0,0E0,0E0,0E0,0E0,0E0,0E0,0E0,0E0,0E0,0E0,0E0,0E0,0E0,0E0,0E0,0E0,0E0],"parents":[2147483647,0,0,1,1,2,2,4,4,5,5,6,6,7,7,8,8,9,9,10,10,12,12,13,13,14,14,15,15,16,16,18,18,23,23,24,24,25,25,26,26,27,27,28,28,29,29,30,30],"right_children":[2,4,6,-1,8,10,12,14,16,18,20,-1,22,24,26,28,30,-1,32,-1,-1,-1,-1,34,36,38,40,42,44,46,48,-1,-1,-1,-1,-1,-1,-1,-1,-1,-1,-1,-1,-1,-1,-1,-1,-1,-1],"split_conditions":[1.5E0,1E0,0E0,-5.1322635E-2,0E0,2.00001E0,2E0,-5.75E2,9.35E2,-2E0,0E0,-3.374325E-2,3.23E2,3.64E2,7E0,2E0,-7E0,1.2803384E-3,5.4E1,-3.0796349E-2,3.0796358E-2,3.328273E-2,9.780893E-3,2.3E1,-5.37E2,-3.1E1,1E0,9.7E1,1.83E2,4.877E3,9.268E3,-9.568109E-3,-5.3673595E-2,3.0675411E-2,-3.162391E-2,1.8517643E-2,-3.62912E-2,2.6848024E-2,-3.6760923E-2,1.094759E-2,-5.029517E-2,-1.5077288E-2,4.741594E-2,5.40666E-2,2.3322428E-2,-6.0206044E-2,6.135849E-3,2.505656E-2,-9.236607E-3],"split_indices":[9,18,2,0,3,18,0,7,16,1,6,0,8,17,15,14,6,0,16,0,0,0,0,15,8,8,19,7,17,7,16,0,0,0,0,0,0,0,0,0,0,0,0,0,0,0,0,0,0],"split_type":[0,0,0,0,0,0,0,0,0,0,0,0,0,0,0,0,0,0,0,0,0,0,0,0,0,0,0,0,0,0,0,0,0,0,0,0,0,0,0,0,0,0,0,0,0,0,0,0,0],"sum_hessian":[5.641079E2,4.6951294E2,9.459502E1,2.4448511E1,4.4506442E2,8.976124E1,4.833774E0,2.1000496E2,2.3505946E2,8.69296E1,2.8316364E0,1.6900288E0,3.1437452E0,1.1412548E2,9.587948E1,1.5774217E2,7.73173E1,1.480687E0,8.544891E1,1.4158182E0,1.4158181E0,1.2878189E0,1.8559262E0,8.307253E1,3.1052946E1,4.4240463E1,5.1639015E1,2.6194836E1,1.3154733E2,1.5687046E1,6.163025E1,1.1627061E0,8.428621E1,7.680915E1,6.2633824E0,1.2831926E1,1.822102E1,2.7313814E1,1.692665E1,1.0581752E1,4.1057262E1,1.7679516E1,8.515319E0,7.5567566E1,5.5979767E1,1.0143643E1,5.543403E0,4.6817543E1,1.4812706E1],"tree_param":{"num_deleted":"0","num_feature":"20","num_nodes":"49","size_leaf_vector":"1"}},{"base_weights":[-2.383143E-8,9.4812E-2,-4.7603515E-1,-5.0998397E-2,1.2841226E-1,-5.328067E-2,-2.1528417E-1,2.3115614E-1,-3.948447E-2,2.9390879E-2,-4.720897E-2,2.8831732E-1,-1.2453679E-1,1.603257E-2,-3.0542618E-1,2.5783545E-1,-4.100896E-2,-3.0858038E-2,3.312801E-1,1.7181713E-2,-5.4511707E-2,-3.1767093E-2,4.332283E-1,-6.806226E-2,-5.304559E-2,-5.4810774E-3,3.595398E-2,3.646098E-2,-2.5614763E-2,-3.4181174E-2,3.4522835E-2,3.27912E-2,-1.2491928E-2,9.673182E-3,-1.5886687E-2,4.810353E-2,8.089474E-3,-5.1584076E-2,1.22554405E-2],"categories":[],"categories_nodes":[],"categories_segments":[],"categories_sizes":[],"default_left":[0,0,1,0,0,0,1,0,0,0,0,1,0,0,0,0,0,0,1,0,0,0,1,1,0,0,0,0,0,0,0,0,0,0,0,0,0,0,0],"id":28,"left_children":[1,3,5,-1,7,-1,9,11,13,15,-1,17,19,21,23,25,-1,27,29,31,-1,33,35,37,-1,-1,-1,-1,-1,-1,-1,-1,-1,-1,-1,-1,-1,-1,-1],"loss_changes":[2.5042107E1,9.4678955E0,1.249466E0,0E0,7.5843463E0,0E0,1.154602E0,5.577759E0,2.4788532E0,1.1336282E0,0E0,3.2345352E0,2.3003497E0,2.7971373E0,1.512295E0,2.5343552E-1,0E0,2.6602352E0,2.0644455E0,1.353199E0,0E0,2.0758154E0,2.0391083E-1,1.3652859E0,0E0,0E0,0E0,0E0,0E0,0E0,0E0,0E0,0E0,0E0,0E0,0E0,0E0,0E0,0E0],"parents":[2147483647,0,0,1,1,2,2,4,4,6,6,7,7,8,8,9,9,11,11,12,12,13,13,14,14,15,15,17,17,18,18,19,19,21,21,22,22,23,23],"right_children":[2,4,6,-1,8,-1,10,12,14,16,-1,18,20,22,24,26,-1,28,30,32,-1,34,36,38,-1,-1,-1,-1,-1,-1,-1,-1,-1,-1,-1,-1,-1,-1,-1],"split_conditions":[1.5E0,1E0,-4E0,-5.0998397E-2,2E0,-5.328067E-2,-1.3E1,3.47E2,1E0,1.29E3,-4.720897E-2,-2.3E1,1.7E1,5.5E1,3E0,2E0,-4.100896E-2,1E0,-1E0,1E0,-5.4511707E-2,-3.1E1,8.944E3,1.01E2,-5.304559E-2,-5.4810774E-3,3.595398E-2,3.646098E-2,-2.5614763E-2,-3.4181174E-2,3.4522835E-2,3.27912E-2,-1.2491928E-2,9.673182E-3,-1.5886687E-2,4.810353E-2,8.089474E-3,-5.1584076E-2,1.22554405E-2],"split_indices":[9,18,6,0,12,0,5,8,5,17,0,6,15,15,12,1,0,19,4,19,0,8,16,8,0,0,0,0,0,0,0,0,0,0,0,0,0,0,0],"split_type":[0,0,0,0,0,0,0,0,0,0,0,0,0,0,0,0,0,0,0,0,0,0,0,0,0,0,0,0,0,0,0,0,0,0,0,0,0,0,0],"sum_hessian":[5.528409E2,4.6168735E2,9.115354E1,2.3553448E1,4.381339E2,7.39989E1,1.715464E1,2.7157043E2,1.6656348E2,9.238286E0,7.9163547E0,2.341337E2,3.7436737E1,1.3857481E2,2.7988668E1,6.35055E0,2.887736E0,2.7810228E1,2.0632347E2,2.8718811E1,8.717927E0,1.2515876E2,1.3416047E1,1.4254898E1,1.3733769E1,1.6719466E0,4.6786036E0,9.868645E0,1.7941584E1,3.7115474E0,2.0261192E2,8.601792E0,2.0117018E1,6.2355637E1,6.2803123E1,1.1491517E1,1.9245296E0,3.7468908E0,1.0508007E1],"tree_param":{"num_deleted":"0","num_feature":"20","num_nodes":"39","size_leaf_vector":"1"}},{"base_weights":[4.3334656E-9,9.178496E-2,-4.7370493E-1,-5.0707728E-2,1.2406168E-1,-5.012758E-1,2.2111159E-2,-1.4797027E-2,2.5007278E-1,-5.168368E-1,-7.939078E-9,-3.2749843E-2,2.4230959E-1,1.0081071E-1,-2.0520966E-1,3.5124925E-1,4.5438386E-2,5.589227E-4,-5.262472E-1,-2.9093975E-2,2.909397E-2,3.2616686E-2,8.792591E-3,-2.3748137E-1,1.5917818E-1,4.427945E-1,-2.827937E-1,3.9656577E-1,-9.262128E-3,-3.6144128E-1,1.523318E-1,-1.0267521E-2,-5.309857E-2,-5.4847635E-2,2.0487383E-2,2.2616757E-2,-1.6352238E-2,-1.9481996E-2,5.6963988E-2,5.861164E-3,-3.9646924E-2,4.2048957E-2,-4.6150964E-2,5.000478E-2,-2.401567E-2,-5.878917E-2,6.1190063E-3,2.028988E-2,-2.8695896E-2],"categories":[],"categories_nodes":[],"categories_segments":[],"categories_sizes":[],"default_left":[0,0,1,0,1,0,0,1,1,0,1,0,0,1,0,0,1,0,0,0,0,0,0,1,0,1,0,0,0,0,0,0,0,0,0,0,0,0,0,0,0,0,0,0,0,0,0,0,0],"id":29,"left_children":[1,3,5,-1,7,9,11,13,15,17,19,-1,21,23,25,27,29,-1,31,-1,-1,-1,-1,33,35,37,39,41,43,45,47,-1,-1,-1,-1,-1,-1,-1,-1,-1,-1,-1,-1,-1,-1,-1,-1,-1,-1],"loss_changes":[2.3648499E1,8.869819E0,1.2179031E0,0E0,7.5824475E0,6.5268517E-1,5.110976E-1,4.5774856E0,4.6864567E0,4.019146E-1,3.8253692E-1,0E0,2.3309797E-2,2.5942705E0,4.073332E0,2.4841766E0,3.3731995E0,0E0,1.0550308E-1,0E0,0E0,0E0,0E0,2.788504E0,2.4369538E0,8.216312E-1,2.7687721E0,2.963358E0,2.2287705E0,1.5834696E0,1.415972E0,0E0,0E0,0E0,0E0,0E0,0E0,0E0,0E0,0E0,0E0,0E0,0E0,0E0,0E0,0E0,0E0,0E0,0E0],"parents":[2147483647,0,0,1,1,2,2,4,4,5,5,6,6,7,7,8,8,9,9,10,10,12,12,13,13,14,14,15,15,16,16,18,18,23,23,24,24,25,25,26,26,27,27,28,28,29,29,30,30],"right_children":[2,4,6,-1,8,10,12,14,16,18,20,-1,22,24,26,28,30,-1,32,-1,-1,-1,-1,34,36,38,40,42,44,46,48,-1,-1,-1,-1,-1,-1,-1,-1,-1,-1,-1,-1,-1,-1,-1,-1,-1,-1],"split_conditions":[1.5E0,1E0,0E0,-5.0707728E-2,0E0,2.00001E0,2E0,8E0,9.35E2,-2E0,0E0,-3.2749843E-2,3.23E2,-4E0,1E0,4.88E2,-7E0,5.589227E-4,5.4E1,-2.9093975E-2,2.909397E-2,3.2616686E-2,8.792591E-3,-6.06E2,1.67E2,0E0,-3.4E2,3E0,-5.8E1,4.877E3,7.65E2,-1.0267521E-2,-5.309857E-2,-5.4847635E-2,2.0487383E-2,2.2616757E-2,-1.6352238E-2,-1.9481996E-2,5.6963988E-2,5.861164E-3,-3.9646924E-2,4.2048957E-2,-4.6150964E-2,5.000478E-2,-2.401567E-2,-5.878917E-2,6.1190063E-3,2.028988E-2,-2.8695896E-2],"split_indices":[9,18,2,0,3,18,0,7,16,1,6,0,8,3,15,8,6,0,16,0,0,0,0,7,8,4,8,3,5,7,8,0,0,0,0,0,0,0,0,0,0,0,0,0,0,0,0,0,0],"split_type":[0,0,0,0,0,0,0,0,0,0,0,0,0,0,0,0,0,0,0,0,0,0,0,0,0,0,0,0,0,0,0,0,0,0,0,0,0,0,0,0,0,0,0,0,0,0,0,0,0],"sum_hessian":[5.4190643E2,4.546247E2,8.728173E1,2.249741E1,4.321273E2,8.26735E1,4.6082363E0,2.0600327E2,2.2612401E2,8.0154236E1,2.51926E0,1.5925124E0,3.0157237E0,1.2847258E2,7.7530685E1,1.5083223E2,7.529179E1,1.4254476E0,7.872879E1,1.2596298E0,1.2596301E0,1.2331858E0,1.7825379E0,1.8452868E1,1.10019714E2,7.786694E0,6.9743996E1,1.339008E2,1.693143E1,1.5169436E1,6.012235E1,1.1217811E0,7.760701E1,1.0694364E1,7.7585034E0,9.135456E1,1.8665152E1,1.2031127E0,6.583581E0,1.7542486E1,5.2201508E1,1.3076494E2,3.1358633E0,4.91786E0,1.201357E1,9.622546E0,5.5468907E0,5.4398617E1,5.723732E0],"tree_param":{"num_deleted":"0","num_feature":"20","num_nodes":"49","size_leaf_vector":"1"}},{"base_weights":[-1.839803E-8,8.934621E-2,-4.702532E-1,-5.0430622E-2,1.20765574E-1,1.4153756E-1,-4.917094E-1,-7.878498E-2,1.9880016E-1,2.7952224E-2,-2.849686E-3,-1.09412685E-1,-5.2212435E-1,4.650728E-2,-2.5061262E-1,2.8306118E-1,-2.3691377E-3,3.1100858E-2,-4.2925723E-2,-7.068907E-3,-5.272481E-2,4.8235066E-2,-1.1089567E-2,-4.4533502E-2,-5.1817894E-1,5.5726004E-1,2.0512336E-1,-5.0976956E-1,9.102572E-2,1.0932943E-2,-2.6960874E-2,-1.8934006E-2,4.178891E-2,-5.9542637E-2,-9.927613E-4,6.0214665E-2,3.7616856E-2,2.5985533E-2,-1.4235663E-2,5.4452675E-3,-5.937276E-2,3.632621E-2,-2.2623788E-3],"categories":[],"categories_nodes":[],"categories_segments":[],"categories_sizes":[],"default_left":[0,0,0,0,1,0,0,0,1,0,0,0,0,1,0,0,1,0,0,0,0,0,0,1,0,0,0,0,0,0,0,0,0,0,0,0,0,0,0,0,0,0,0],"id":30,"left_children":[1,3,5,-1,7,9,11,13,15,-1,-1,17,19,21,23,25,27,-1,-1,-1,-1,-1,29,31,33,35,37,39,41,-1,-1,-1,-1,-1,-1,-1,-1,-1,-1,-1,-1,-1,-1],"loss_changes":[2.2355392E1,8.400757E0,1.1847343E0,0E0,6.6408105E0,9.371737E-2,8.99786E-1,2.6019938E0,5.189908E0,0E0,0E0,1.1191657E0,1.3844109E-1,1.7732685E0,2.7832282E0,4.4968224E0,4.3760753E0,0E0,0E0,0E0,0E0,0E0,1.9964048E0,2.0775762E0,8.597827E-1,1.5694714E-1,3.2624397E0,7.123141E-1,2.4218383E0,0E0,0E0,0E0,0E0,0E0,0E0,0E0,0E0,0E0,0E0,0E0,0E0,0E0,0E0],"parents":[2147483647,0,0,1,1,2,2,4,4,5,5,6,6,7,7,8,8,11,11,12,12,13,13,14,14,15,15,16,16,22,22,23,23,24,24,25,25,26,26,27,27,28,28],"right_children":[2,4,6,-1,8,10,12,14,16,-1,-1,18,20,22,24,26,28,-1,-1,-1,-1,-1,30,32,34,36,38,40,42,-1,-1,-1,-1,-1,-1,-1,-1,-1,-1,-1,-1,-1,-1],"split_conditions":[1.5E0,1E0,-7.9E1,-5.0430622E-2,-1E0,2.00001E0,5E0,2.2E1,1.227E3,2.7952224E-2,-2.849686E-3,3.22E2,4.5E1,-1.7E1,-2.9E1,1E0,-1.6E1,3.1100858E-2,-4.2925723E-2,-7.068907E-3,-5.272481E-2,4.8235066E-2,1.1E1,3.267E4,1E0,3E0,3.26E2,2.4E1,2E0,1.0932943E-2,-2.6960874E-2,-1.8934006E-2,4.178891E-2,-5.9542637E-2,-9.927613E-4,6.0214665E-2,3.7616856E-2,2.5985533E-2,-1.4235663E-2,5.4452675E-3,-5.937276E-2,3.632621E-2,-2.2623788E-3],"split_indices":[9,18,5,0,3,2,15,14,16,0,0,17,16,6,5,19,6,0,0,0,0,0,8,16,0,6,8,17,15,0,0,0,0,0,0,0,0,0,0,0,0,0,0],"split_type":[0,0,0,0,0,0,0,0,0,0,0,0,0,0,0,0,0,0,0,0,0,0,0,0,0,0,0,0,0,0,0,0,0,0,0,0,0,0,0,0,0,0,0],"sum_hessian":[5.300768E2,4.4612485E2,8.3951935E1,2.1668028E1,4.2445682E2,2.6549022E0,8.1297035E1,1.1932038E2,3.0513644E2,1.110116E0,1.5447863E0,6.3300138E0,7.496702E1,6.942605E1,4.9894333E1,2.1477113E2,9.036531E1,2.746927E0,3.5830867E0,1.0073678E0,7.3959656E1,7.24296E0,6.218309E1,2.8844662E1,2.1049671E1,4.617376E1,1.6859738E2,1.3354434E1,7.701088E1,4.281625E1,1.9366842E1,2.2415764E1,6.428897E0,1.8123606E1,2.9260666E0,3.5138897E1,1.1034861E1,1.4587294E2,2.2724438E1,1.7753046E0,1.1579129E1,2.2034067E1,5.497681E1],"tree_param":{"num_deleted":"0","num_feature":"20","num_nodes":"43","size_leaf_vector":"1"}},{"base_weights":[8.539994E-9,8.644275E-2,-4.6793428E-1,1.9478272E-1,-7.9230316E-2,-4.9597198E-1,2.0781865E-2,2.6332414E-1,-1.21079355E-1,-1.8464033E-2,-3.4022143E-1,-5.10893E-1,1.1471944E-8,-3.1751066E-2,2.3359756E-1,3.0222428E-1,-1.1781722E-1,6.4613685E-2,-5.725577E-2,3.3002213E-1,-6.789914E-2,-1.259975E-1,-5.2061897E-2,2.4478073E-4,-5.205453E-1,-2.746362E-2,2.7463624E-2,3.196137E-2,7.7559734E-3,5.3523785E-1,2.518322E-1,3.0578658E-1,-2.6198423E-1,3.9598113E-1,-1.6433491E-1,-4.991086E-2,4.8573932E-1,2.419317E-1,-1.2780346E-1,1.539178E-1,-3.4732333E-1,-1.06666675E-2,-5.2557804E-2,5.928688E-2,2.7649628E-3,-4.9587324E-2,2.7305692E-2,1.2314328E-2,4.3702327E-2,4.693873E-2,-3.5818696E-2,4.846021E-2,1.6599922E-3,-3.4709256E-2,3.080376E-2,5.6410994E-2,2.5054214E-3,-4.1195597E-2,3.261515E-2,6.3513257E-3,-2.2196764E-2,3.61475E-2,-3.730405E-2,2.3846947E-2,-5.4251473E-2],"categories":[],"categories_nodes":[],"categories_segments":[],"categories_sizes":[],"default_left":[0,0,1,0,0,0,0,0,0,1,0,0,1,0,0,0,0,0,0,0,0,0,0,0,0,0,0,0,0,1,0,1,0,0,1,0,0,0,0,1,0,0,0,0,0,0,0,0,0,0,0,0,0,0,0,0,0,0,0,0,0,0,0,0,0],"id":31,"left_children":[1,3,5,7,9,11,13,15,17,19,21,23,25,-1,27,29,31,33,-1,35,37,39,-1,-1,41,-1,-1,-1,-1,43,45,47,49,51,53,-1,55,57,59,61,63,-1,-1,-1,-1,-1,-1,-1,-1,-1,-1,-1,-1,-1,-1,-1,-1,-1,-1,-1,-1,-1,-1,-1,-1],"loss_changes":[2.1095207E1,7.916589E0,1.1245823E0,5.800249E0,2.7652898E0,5.6944275E-1,4.6091807E-1,3.2862854E0,4.0773344E0,2.4826813E0,1.2076559E0,3.7140656E-1,3.203532E-1,0E0,2.7202189E-2,2.2045097E0,1.364051E0,2.7239263E0,0E0,2.5551257E0,2.367625E0,1.0682847E0,0E0,0E0,9.667015E-2,0E0,0E0,0E0,0E0,9.9386215E-1,2.764862E0,8.5202694E-2,1.3096721E0,4.8328018E-1,1.9572289E0,0E0,5.4862666E-1,1.2767218E0,1.926499E0,1.0017343E0,1.2104495E0,0E0,0E0,0E0,0E0,0E0,0E0,0E0,0E0,0E0,0E0,0E0,0E0,0E0,0E0,0E0,0E0,0E0,0E0,0E0,0E0,0E0,0E0,0E0,0E0],"parents":[2147483647,0,0,1,1,2,2,3,3,4,4,5,5,6,6,7,7,8,8,9,9,10,10,11,11,12,12,14,14,15,15,16,16,17,17,19,19,20,20,21,21,24,24,29,29,30,30,31,31,32,32,33,33,34,34,36,36,37,37,38,38,39,39,40,40],"right_children":[2,4,6,8,10,12,14,16,18,20,22,24,26,-1,28,30,32,34,-1,36,38,40,-1,-1,42,-1,-1,-1,-1,44,46,48,50,52,54,-1,56,58,60,62,64,-1,-1,-1,-1,-1,-1,-1,-1,-1,-1,-1,-1,-1,-1,-1,-1,-1,-1,-1,-1,-1,-1,-1,-1],"split_conditions":[1.5E0,2E0,0E0,2.3E1,1E0,2.00001E0,2E0,4.88E2,3.09E2,1E0,3E0,-2E0,0E0,-3.1751066E-2,3.23E2,1E0,-4.2E1,1E0,-5.725577E-2,3.55E2,1E0,2.00001E0,-5.2061897E-2,2.4478073E-4,5.4E1,-2.746362E-2,2.7463624E-2,3.196137E-2,7.7559734E-3,3.951E3,5.4E1,5.011E3,3E0,1E0,0E0,-4.991086E-2,4E0,-9.986E3,-4.62E2,-1.849E3,7.37E2,-1.06666675E-2,-5.2557804E-2,5.928688E-2,2.7649628E-3,-4.9587324E-2,2.7305692E-2,1.2314328E-2,4.3702327E-2,4.693873E-2,-3.5818696E-2,4.846021E-2,1.6599922E-3,-3.4709256E-2,3.080376E-2,5.6410994E-2,2.5054214E-3,-4.1195597E-2,3.261515E-2,6.3513257E-3,-2.2196764E-2,3.61475E-2,-3.730405E-2,2.3846947E-2,-5.4251473E-2],"split_indices":[9,12,2,15,5,18,0,8,17,15,12,1,6,0,8,19,5,19,0,7,19,2,0,0,16,0,0,0,0,16,16,7,16,9,2,0,12,7,7,7,16,0,0,0,0,0,0,0,0,0,0,0,0,0,0,0,0,0,0,0,0,0,0,0,0],"split_type":[0,0,0,0,0,0,0,0,0,0,0,0,0,0,0,0,0,0,0,0,0,0,0,0,0,0,0,0,0,0,0,0,0,0,0,0,0,0,0,0,0,0,0,0,0,0,0,0,0,0,0,0,0,0,0,0,0,0,0,0,0,0,0,0,0],"sum_hessian":[5.195193E2,4.3919998E2,8.031932E1,2.6544174E2,1.7375824E2,7.5947365E1,4.371956E0,2.182486E2,4.7193153E1,1.4181123E2,3.194701E1,7.370006E1,2.247305E0,1.4983007E0,2.873655E0,1.9822443E2,2.0024176E1,3.404665E1,1.3146503E1,1.6912558E1,1.24898674E2,1.5380706E1,1.6566305E1,1.3739787E0,7.232608E1,1.1236526E0,1.1236525E0,1.1766921E0,1.696963E0,3.3535305E1,1.6468912E2,4.7998347E0,1.5224341E1,1.3613567E1,2.0433083E1,2.3254197E0,1.4587137E1,1.9743708E1,1.0515496E2,6.9259186E0,8.454786E0,1.1355524E0,7.119053E1,2.9965092E1,3.5702121E0,3.9286165E0,1.607605E2,2.8173006E0,1.9825339E0,1.3188406E0,1.39055E1,1.081087E1,2.8026972E0,1.4924219E1,5.5088625E0,1.2274525E1,2.3126125E0,1.8087809E0,1.7934927E1,3.4792107E1,7.0362854E1,5.194109E0,1.7318099E0,2.0576901E0,6.3970966E0],"tree_param":{"num_deleted":"0","num_feature":"20","num_nodes":"65","size_leaf_vector":"1"}},{"base_weights":[-2.7544305E-8,8.506964E-2,-4.661197E-1,1.9484547E-1,-8.222746E-2,1.2795708E-1,-4.874328E-1,2.530108E-1,-1.4052474E-1,-4.8888452E-2,-4.4354454E-2,2.6545614E-2,-3.3137107E-3,-1.10258184E-1,-5.1741314E-1,-3.3845997E-3,3.025665E-1,-1.3981996E-3,-5.2300733E-2,5.6586997E-3,-2.984786E-1,2.941435E-2,-4.1730355E-2,-8.025262E-3,-5.2262098E-2,3.8006946E-1,-1.7237972E-1,-3.3544478E-1,3.1706345E-1,3.1102335E-1,-1.3201723E-1,-3.611275E-2,4.0708813E-1,-7.329572E-2,-5.1381607E-2,4.8941333E-2,-6.619467E-3,-3.85111E-2,3.7025444E-2,-5.825423E-2,2.752374E-2,-3.791338E-2,3.2954823E-2,5.136487E-2,-4.68593E-2,3.1141493E-2,-3.4028266E-2,8.395439E-3,-1.6223138E-2,4.5849655E-2,6.82495E-3,1.0784501E-2,-4.8406757E-2],"categories":[],"categories_nodes":[],"categories_segments":[],"categories_sizes":[],"default_left":[0,0,0,0,0,0,0,1,0,0,0,0,0,0,0,0,1,0,0,0,0,0,0,0,0,1,1,0,0,0,0,0,0,1,0,0,0,0,0,0,0,0,0,0,0,0,0,0,0,0,0,0,0],"id":32,"left_children":[1,3,5,7,9,11,13,15,17,-1,19,-1,-1,21,23,25,27,29,-1,31,33,-1,-1,-1,-1,35,37,39,41,43,45,47,49,51,-1,-1,-1,-1,-1,-1,-1,-1,-1,-1,-1,-1,-1,-1,-1,-1,-1,-1,-1],"loss_changes":[2.023346E1,7.9408474E0,1.0595226E0,5.123846E0,2.6222339E0,8.675654E-2,8.049946E-1,2.8299713E0,2.0850456E0,0E0,2.0116055E0,0E0,0E0,9.7755724E-1,1.1822128E-1,2.4665537E0,1.8322353E0,1.2548755E0,0E0,2.2468674E0,1.2242484E0,0E0,0E0,0E0,0E0,6.006919E-1,3.1907358E0,8.592358E-1,1.7152519E0,1.6730605E0,2.107879E0,1.853314E0,1.8867373E-1,1.0855417E0,0E0,0E0,0E0,0E0,0E0,0E0,0E0,0E0,0E0,0E0,0E0,0E0,0E0,0E0,0E0,0E0,0E0,0E0,0E0],"parents":[2147483647,0,0,1,1,2,2,3,3,4,4,5,5,6,6,7,7,8,8,10,10,13,13,14,14,15,15,16,16,17,17,19,19,20,20,25,25,26,26,27,27,28,28,29,29,30,30,31,31,32,32,33,33],"right_children":[2,4,6,8,10,12,14,16,18,-1,20,-1,-1,22,24,26,28,30,-1,32,34,-1,-1,-1,-1,36,38,40,42,44,46,48,50,52,-1,-1,-1,-1,-1,-1,-1,-1,-1,-1,-1,-1,-1,-1,-1,-1,-1,-1,-1],"split_conditions":[1.5E0,2E0,-7.9E1,3.47E2,1E0,2.00001E0,5E0,-1.3E1,1.7E1,-4.8888452E-2,1E0,2.6545614E-2,-3.3137107E-3,3.22E2,4.5E1,1E0,-1E0,1E0,-5.2300733E-2,5.5E1,3E0,2.941435E-2,-4.1730355E-2,-8.025262E-3,-5.2262098E-2,3.736E3,0E0,1.3E1,1E0,6E0,-3.1E1,7E0,4E0,7.54E2,-5.1381607E-2,4.8941333E-2,-6.619467E-3,-3.85111E-2,3.7025444E-2,-5.825423E-2,2.752374E-2,-3.791338E-2,3.2954823E-2,5.136487E-2,-4.68593E-2,3.1141493E-2,-3.4028266E-2,8.395439E-3,-1.6223138E-2,4.5849655E-2,6.82495E-3,1.0784501E-2,-4.8406757E-2],"split_indices":[9,12,5,8,18,2,15,6,15,0,5,0,0,17,16,19,4,19,0,15,12,0,0,0,0,16,2,5,18,6,5,15,12,7,0,0,0,0,0,0,0,0,0,0,0,0,0,0,0,0,0,0,0],"split_type":[0,0,0,0,0,0,0,0,0,0,0,0,0,0,0,0,0,0,0,0,0,0,0,0,0,0,0,0,0,0,0,0,0,0,0,0,0,0,0,0,0,0,0,0,0,0,0,0,0,0,0,0,0],"sum_hessian":[5.0826758E2,4.305137E2,7.775387E1,2.5984546E2,1.7066823E2,2.5195956E0,7.5234276E1,2.2164908E2,3.81964E1,1.3525986E1,1.5714224E2,1.009836E0,1.5097595E0,5.8842115E0,6.935006E1,3.6051975E1,1.8559709E2,2.8744394E1,9.452005E0,1.321183E2,2.502394E1,2.5576348E0,3.3265765E0,1.0096177E0,6.834045E1,1.0646289E1,2.5405685E1,3.6315942E0,1.819655E2,8.067344E0,2.067705E1,1.20490486E2,1.1627811E1,1.2887543E1,1.2136396E1,8.4734335E0,2.172855E0,1.84593E1,6.9463873E0,2.6182594E0,1.0133348E0,2.6882968E0,1.792772E2,6.6739182E0,1.3934255E0,6.4495635E0,1.4227487E1,6.18974E1,5.859309E1,9.789424E0,1.8383877E0,9.455394E0,3.4321485E0],"tree_param":{"num_deleted":"0","num_feature":"20","num_nodes":"53","size_leaf_vector":"1"}},{"base_weights":[-4.7726044E-8,8.2971245E-2,-4.644983E-1,2.3183447E-1,-4.1114636E-2,-4.924105E-1,1.8503558E-2,7.522606E-2,3.5607097E-1,2.639673E-2,-3.382318E-1,-5.065883E-1,-5.4566385E-8,-3.0552387E-2,2.21522E-1,2.0562112E-1,-3.1017885E-1,-7.604013E-2,4.152855E-1,3.4388095E-1,-4.6959657E-2,-1.3901761E-1,-5.7758506E-2,-1.4322675E-4,-5.163659E-1,-2.5858028E-2,2.5858013E-2,3.116831E-2,6.334239E-3,-1.3737299E-1,3.6215156E-1,2.8903812E-1,-4.4748303E-1,-6.256556E-2,1.1406069E-1,-4.277965E-2,4.367354E-1,5.054995E-1,-1.1361906E-1,3.9580446E-1,-1.0076948E-1,-3.518627E-1,1.5297712E-1,-1.1739784E-2,-5.2141096E-2,1.3655237E-2,-4.2416897E-2,5.157211E-2,1.1647378E-2,-1.5707406E-3,3.973903E-2,1.5930027E-2,-5.780056E-2,-4.164388E-2,2.6322007E-2,4.8123863E-2,2.0346992E-2,6.4892094E-3,5.5013396E-2,-5.671047E-2,3.4580193E-2,-1.7752947E-2,5.3002417E-2,1.1137933E-2,-2.4071997E-2,-5.805952E-2,2.1338657E-2,3.5878923E-2,-4.0427778E-2],"categories":[],"categories_nodes":[],"categories_segments":[],"categories_sizes":[],"default_left":[0,0,1,1,0,0,0,0,1,0,0,0,1,0,0,0,0,0,0,1,1,1,0,0,0,0,0,0,0,1,1,0,0,0,0,0,0,0,0,1,0,1,1,0,0,0,0,0,0,0,0,0,0,0,0,0,0,0,0,0,0,0,0,0,0,0,0,0,0],"id":33,"left_children":[1,3,5,7,9,11,13,15,17,19,21,23,25,-1,27,29,31,33,35,37,39,41,-1,-1,43,-1,-1,-1,-1,45,47,49,51,-1,53,-1,55,57,59,61,63,65,67,-1,-1,-1,-1,-1,-1,-1,-1,-1,-1,-1,-1,-1,-1,-1,-1,-1,-1,-1,-1,-1,-1,-1,-1,-1,-1],"loss_changes":[1.9250835E1,7.837906E0,1.0296955E0,3.7247248E0,4.662273E0,4.9987411E-1,4.0314403E-1,4.4139967E0,2.7758732E0,4.4402356E0,1.9712348E0,3.430214E-1,2.677166E-1,0E0,3.3237338E-2,3.5546293E0,1.9625847E0,1.5102191E0,1.8954315E0,2.7025528E0,3.737224E0,1.595028E0,0E0,0E0,7.6208115E-2,0E0,0E0,0E0,0E0,1.7219473E0,1.6414819E0,1.6346318E-1,1.558881E0,0E0,9.8620486E-1,0E0,8.6369896E-1,4.8778868E-1,2.3118172E0,1.4037783E0,4.158745E0,2.0174966E0,1.4240873E0,0E0,0E0,0E0,0E0,0E0,0E0,0E0,0E0,0E0,0E0,0E0,0E0,0E0,0E0,0E0,0E0,0E0,0E0,0E0,0E0,0E0,0E0,0E0,0E0,0E0,0E0],"parents":[2147483647,0,0,1,1,2,2,3,3,4,4,5,5,6,6,7,7,8,8,9,9,10,10,11,11,12,12,14,14,15,15,16,16,17,17,18,18,19,19,20,20,21,21,24,24,29,29,30,30,31,31,32,32,34,34,36,36,37,37,38,38,39,39,40,40,41,41,42,42],"right_children":[2,4,6,8,10,12,14,16,18,20,22,24,26,-1,28,30,32,34,36,38,40,42,-1,-1,44,-1,-1,-1,-1,46,48,50,52,-1,54,-1,56,58,60,62,64,66,68,-1,-1,-1,-1,-1,-1,-1,-1,-1,-1,-1,-1,-1,-1,-1,-1,-1,-1,-1,-1,-1,-1,-1,-1,-1,-1],"split_conditions":[1.5E0,1.83E2,0E0,0E0,4E0,2.00001E0,2E0,1.3E1,-6.4E1,1E0,1E0,-2E0,0E0,-3.0552387E-2,3.23E2,1E0,7E0,0E0,-2.317E3,9.268E3,1E0,0E0,-5.7758506E-2,-1.4322675E-4,5.4E1,-2.5858028E-2,2.5858013E-2,3.116831E-2,6.334239E-3,-7E0,-1.1E1,1.05E2,1E0,-6.256556E-2,0E0,-4.277965E-2,1E0,-1E0,1.7574E4,0E0,-2.5E2,8E0,0E0,-1.1739784E-2,-5.2141096E-2,1.3655237E-2,-4.2416897E-2,5.157211E-2,1.1647378E-2,-1.5707406E-3,3.973903E-2,1.5930027E-2,-5.780056E-2,-4.164388E-2,2.6322007E-2,4.8123863E-2,2.0346992E-2,6.4892094E-3,5.5013396E-2,-5.671047E-2,3.4580193E-2,-1.7752947E-2,5.3002417E-2,1.1137933E-2,-2.4071997E-2,-5.805952E-2,2.1338657E-2,3.5878923E-2,-4.0427778E-2],"split_indices":[9,17,2,3,5,18,0,15,5,19,10,1,6,0,8,2,14,6,7,16,15,2,0,0,16,0,0,0,0,5,5,6,19,0,0,0,4,3,7,4,8,5,7,0,0,0,0,0,0,0,0,0,0,0,0,0,0,0,0,0,0,0,0,0,0,0,0,0,0],"split_type":[0,0,0,0,0,0,0,0,0,0,0,0,0,0,0,0,0,0,0,0,0,0,0,0,0,0,0,0,0,0,0,0,0,0,0,0,0,0,0,0,0,0,0,0,0,0,0,0,0,0,0,0,0,0,0,0,0,0,0,0,0,0,0,0,0,0,0,0,0],"sum_hessian":[4.975025E2,4.228008E2,7.470168E1,1.9181548E2,2.3098534E2,7.060217E1,4.0995092E0,8.556305E1,1.06252426E2,1.8896062E2,4.202473E1,6.859826E1,2.0039148E0,1.3846432E0,2.714866E0,6.428113E1,2.1281923E1,1.2771287E1,9.348113E1,3.477362E1,1.5418698E2,2.3798227E1,1.8226505E1,1.3243171E0,6.727394E1,1.0019572E0,1.0019577E0,1.1111065E0,1.6037594E0,2.018141E1,4.4099716E1,3.7614172E0,1.7520506E1,2.6932998E0,1.0077988E1,1.8493402E0,9.16318E1,2.5618572E1,9.15505E0,1.6019327E1,1.3816766E2,1.3646089E1,1.0152139E1,1.1431401E0,6.61308E1,1.059027E1,9.591139E0,2.6460485E1,1.7639229E1,1.2108577E0,2.5505593E0,3.0625613E0,1.4457945E1,1.8184811E0,8.259506E0,7.605811E1,1.5573683E1,2.5822117E0,2.303636E1,4.4893293E0,4.6657205E0,2.977583E0,1.3041744E1,5.4999264E1,8.3168396E1,9.695558E0,3.9505305E0,7.674024E0,2.4781148E0],"tree_param":{"num_deleted":"0","num_feature":"20","num_nodes":"69","size_leaf_vector":"1"}},{"base_weights":[5.088935E-8,8.203642E-2,-4.6298316E-1,1.5568408E-1,-1.7261006E-1,-4.9082795E-1,1.1055634E-2,2.7885365E-1,-8.373669E-3,-9.155631E-2,-5.1508088E-2,-5.0477165E-1,-2.7472875E-9,-3.036049E-2,2.1104531E-1,3.803664E-1,1.3344923E-1,1.0831507E-1,-2.063817E-1,-1.6251765E-1,2.6035163E-1,-7.9931814E-4,-5.145938E-1,3.0791605E-2,5.150634E-3,1.3856505E-1,4.6259135E-1,-2.0476115E-1,2.4154021E-1,-2.0305954E-1,2.1635051E-1,-3.9566264E-1,9.005373E-3,-6.338637E-2,-4.4799116E-1,-2.9047627E-2,3.3364925E-1,-1.2322035E-2,-5.1959254E-2,